<?xml version="1.0" encoding="UTF-8"?>
<PMML xmlns="http://www.dmg.org/PMML-4_4" version="4.4.1">
    <Header copyright="Copyright (c) 2021 Software AG" description="Default description">
        <Application name="Nyoka" version="5.0.0"/>
        <Timestamp>2021-09-07 15:33:08.224821</Timestamp>
    </Header>
    <DataDictionary numberOfFields="5">
        <DataField name="Age" optype="continuous" dataType="double"/>
        <DataField name="Debt" optype="continuous" dataType="double"/>
        <DataField name="YearsEmployed" optype="continuous" dataType="double"/>
        <DataField name="Income" optype="continuous" dataType="double"/>
        <DataField name="Approved" optype="categorical" dataType="integer">
            <Value value="0"/>
            <Value value="1"/>
        </DataField>
    </DataDictionary>
    <MiningModel modelName="RandomForestClassifier" functionName="classification">
        <MiningSchema>
            <MiningField name="Age" usageType="active" optype="continuous"/>
            <MiningField name="Debt" usageType="active" optype="continuous"/>
            <MiningField name="YearsEmployed" usageType="active" optype="continuous"/>
            <MiningField name="Income" usageType="active" optype="continuous"/>
            <MiningField name="Approved" usageType="target" optype="categorical"/>
        </MiningSchema>
        <Output>
            <OutputField name="probability_0" optype="continuous" dataType="double" feature="probability" value="0"/>
            <OutputField name="probability_1" optype="continuous" dataType="double" feature="probability" value="1"/>
            <OutputField name="predicted_Approved" optype="categorical" dataType="integer" feature="predictedValue"/>
        </Output>
        <Segmentation multipleModelMethod="average" missingThreshold="1">
            <Segment id="0" weight="1">
                <True/>
                <TreeModel modelName="DecisionTreeClassifier" functionName="classification" missingValuePenalty="1.0">
                    <MiningSchema>
                        <MiningField name="Age" usageType="active"/>
                        <MiningField name="Debt" usageType="active"/>
                        <MiningField name="YearsEmployed" usageType="active"/>
                        <MiningField name="Income" usageType="active"/>
                    </MiningSchema>
                    <Node id="0" recordCount="173.0">
                        <True/>
                        <Node id="1" recordCount="114.0">
                            <SimplePredicate field="YearsEmployed" operator="lessOrEqual" value="1.395"/>
                            <Node id="2" recordCount="104.0">
                                <SimplePredicate field="Age" operator="lessOrEqual" value="45.835"/>
                                <Node id="3" recordCount="10.0">
                                    <SimplePredicate field="Debt" operator="lessOrEqual" value="0.22999999"/>
                                    <Node id="4" score="0" recordCount="3.0">
                                        <SimplePredicate field="Age" operator="lessOrEqual" value="17.25"/>
                                        <ScoreDistribution value="0" recordCount="4.0" confidence="1.0"/>
                                        <ScoreDistribution value="1" recordCount="0.0" confidence="0.0"/>
                                    </Node>
                                    <Node id="5" recordCount="7.0">
                                        <SimplePredicate field="Age" operator="greaterThan" value="17.25"/>
                                        <Node id="6" score="1" recordCount="4.0">
                                            <SimplePredicate field="YearsEmployed" operator="lessOrEqual" value="0.22999999"/>
                                            <ScoreDistribution value="0" recordCount="0.0" confidence="0.0"/>
                                            <ScoreDistribution value="1" recordCount="6.0" confidence="1.0"/>
                                        </Node>
                                        <Node id="7" recordCount="3.0">
                                            <SimplePredicate field="YearsEmployed" operator="greaterThan" value="0.22999999"/>
                                            <Node id="8" score="0" recordCount="2.0">
                                                <SimplePredicate field="Debt" operator="lessOrEqual" value="0.1875"/>
                                                <ScoreDistribution value="0" recordCount="3.0" confidence="1.0"/>
                                                <ScoreDistribution value="1" recordCount="0.0" confidence="0.0"/>
                                            </Node>
                                            <Node id="9" score="1" recordCount="1.0">
                                                <SimplePredicate field="Debt" operator="greaterThan" value="0.1875"/>
                                                <ScoreDistribution value="0" recordCount="0.0" confidence="0.0"/>
                                                <ScoreDistribution value="1" recordCount="1.0" confidence="1.0"/>
                                            </Node>
                                        </Node>
                                    </Node>
                                </Node>
                                <Node id="10" recordCount="94.0">
                                    <SimplePredicate field="Debt" operator="greaterThan" value="0.22999999"/>
                                    <Node id="11" score="0" recordCount="29.0">
                                        <SimplePredicate field="YearsEmployed" operator="lessOrEqual" value="0.14500001"/>
                                        <ScoreDistribution value="0" recordCount="38.0" confidence="1.0"/>
                                        <ScoreDistribution value="1" recordCount="0.0" confidence="0.0"/>
                                    </Node>
                                    <Node id="12" recordCount="65.0">
                                        <SimplePredicate field="YearsEmployed" operator="greaterThan" value="0.14500001"/>
                                        <Node id="13" recordCount="31.0">
                                            <SimplePredicate field="Debt" operator="lessOrEqual" value="2.6875"/>
                                            <Node id="14" score="0" recordCount="16.0">
                                                <SimplePredicate field="Age" operator="lessOrEqual" value="25.585"/>
                                                <ScoreDistribution value="0" recordCount="27.0" confidence="1.0"/>
                                                <ScoreDistribution value="1" recordCount="0.0" confidence="0.0"/>
                                            </Node>
                                            <Node id="15" recordCount="15.0">
                                                <SimplePredicate field="Age" operator="greaterThan" value="25.585"/>
                                                <Node id="16" score="1" recordCount="2.0">
                                                    <SimplePredicate field="Debt" operator="lessOrEqual" value="0.4375"/>
                                                    <ScoreDistribution value="0" recordCount="0.0" confidence="0.0"/>
                                                    <ScoreDistribution value="1" recordCount="2.0" confidence="1.0"/>
                                                </Node>
                                                <Node id="17" recordCount="13.0">
                                                    <SimplePredicate field="Debt" operator="greaterThan" value="0.4375"/>
                                                    <Node id="18" score="0" recordCount="9.0">
                                                        <SimplePredicate field="Income" operator="lessOrEqual" value="19.5"/>
                                                        <ScoreDistribution value="0" recordCount="12.0" confidence="1.0"/>
                                                        <ScoreDistribution value="1" recordCount="0.0" confidence="0.0"/>
                                                    </Node>
                                                    <Node id="19" recordCount="4.0">
                                                        <SimplePredicate field="Income" operator="greaterThan" value="19.5"/>
                                                        <Node id="20" score="1" recordCount="1.0">
                                                            <SimplePredicate field="Income" operator="lessOrEqual" value="65.5"/>
                                                            <ScoreDistribution value="0" recordCount="0.0" confidence="0.0"/>
                                                            <ScoreDistribution value="1" recordCount="1.0" confidence="1.0"/>
                                                        </Node>
                                                        <Node id="21" score="0" recordCount="3.0">
                                                            <SimplePredicate field="Income" operator="greaterThan" value="65.5"/>
                                                            <ScoreDistribution value="0" recordCount="3.0" confidence="1.0"/>
                                                            <ScoreDistribution value="1" recordCount="0.0" confidence="0.0"/>
                                                        </Node>
                                                    </Node>
                                                </Node>
                                            </Node>
                                        </Node>
                                        <Node id="22" recordCount="34.0">
                                            <SimplePredicate field="Debt" operator="greaterThan" value="2.6875"/>
                                            <Node id="23" score="1" recordCount="2.0">
                                                <SimplePredicate field="Debt" operator="lessOrEqual" value="3.0825"/>
                                                <ScoreDistribution value="0" recordCount="0.0" confidence="0.0"/>
                                                <ScoreDistribution value="1" recordCount="4.0" confidence="1.0"/>
                                            </Node>
                                            <Node id="24" recordCount="32.0">
                                                <SimplePredicate field="Debt" operator="greaterThan" value="3.0825"/>
                                                <Node id="25" recordCount="31.0">
                                                    <SimplePredicate field="Income" operator="lessOrEqual" value="252.5"/>
                                                    <Node id="26" recordCount="19.0">
                                                        <SimplePredicate field="Age" operator="lessOrEqual" value="25.67"/>
                                                        <Node id="27" recordCount="11.0">
                                                            <SimplePredicate field="YearsEmployed" operator="lessOrEqual" value="0.4375"/>
                                                            <Node id="28" score="0" recordCount="9.0">
                                                                <SimplePredicate field="Age" operator="lessOrEqual" value="23.0"/>
                                                                <ScoreDistribution value="0" recordCount="15.0" confidence="1.0"/>
                                                                <ScoreDistribution value="1" recordCount="0.0" confidence="0.0"/>
                                                            </Node>
                                                            <Node id="29" recordCount="2.0">
                                                                <SimplePredicate field="Age" operator="greaterThan" value="23.0"/>
                                                                <Node id="30" score="1" recordCount="1.0">
                                                                    <SimplePredicate field="YearsEmployed" operator="lessOrEqual" value="0.33249998"/>
                                                                    <ScoreDistribution value="0" recordCount="0.0" confidence="0.0"/>
                                                                    <ScoreDistribution value="1" recordCount="1.0" confidence="1.0"/>
                                                                </Node>
                                                                <Node id="31" score="0" recordCount="1.0">
                                                                    <SimplePredicate field="YearsEmployed" operator="greaterThan" value="0.33249998"/>
                                                                    <ScoreDistribution value="0" recordCount="1.0" confidence="1.0"/>
                                                                    <ScoreDistribution value="1" recordCount="0.0" confidence="0.0"/>
                                                                </Node>
                                                            </Node>
                                                        </Node>
                                                        <Node id="32" recordCount="8.0">
                                                            <SimplePredicate field="YearsEmployed" operator="greaterThan" value="0.4375"/>
                                                            <Node id="33" score="1" recordCount="2.0">
                                                                <SimplePredicate field="Debt" operator="lessOrEqual" value="6.5"/>
                                                                <ScoreDistribution value="0" recordCount="0.0" confidence="0.0"/>
                                                                <ScoreDistribution value="1" recordCount="3.0" confidence="1.0"/>
                                                            </Node>
                                                            <Node id="34" recordCount="6.0">
                                                                <SimplePredicate field="Debt" operator="greaterThan" value="6.5"/>
                                                                <Node id="35" score="0" recordCount="4.0">
                                                                    <SimplePredicate field="Debt" operator="lessOrEqual" value="11.02"/>
                                                                    <ScoreDistribution value="0" recordCount="6.0" confidence="1.0"/>
                                                                    <ScoreDistribution value="1" recordCount="0.0" confidence="0.0"/>
                                                                </Node>
                                                                <Node id="36" recordCount="2.0">
                                                                    <SimplePredicate field="Debt" operator="greaterThan" value="11.02"/>
                                                                    <Node id="37" score="1" recordCount="1.0">
                                                                        <SimplePredicate field="YearsEmployed" operator="lessOrEqual" value="0.48000002"/>
                                                                        <ScoreDistribution value="0" recordCount="0.0" confidence="0.0"/>
                                                                        <ScoreDistribution value="1" recordCount="2.0" confidence="1.0"/>
                                                                    </Node>
                                                                    <Node id="38" score="0" recordCount="1.0">
                                                                        <SimplePredicate field="YearsEmployed" operator="greaterThan" value="0.48000002"/>
                                                                        <ScoreDistribution value="0" recordCount="2.0" confidence="1.0"/>
                                                                        <ScoreDistribution value="1" recordCount="0.0" confidence="0.0"/>
                                                                    </Node>
                                                                </Node>
                                                            </Node>
                                                        </Node>
                                                    </Node>
                                                    <Node id="39" score="0" recordCount="12.0">
                                                        <SimplePredicate field="Age" operator="greaterThan" value="25.67"/>
                                                        <ScoreDistribution value="0" recordCount="17.0" confidence="1.0"/>
                                                        <ScoreDistribution value="1" recordCount="0.0" confidence="0.0"/>
                                                    </Node>
                                                </Node>
                                                <Node id="40" score="1" recordCount="1.0">
                                                    <SimplePredicate field="Income" operator="greaterThan" value="252.5"/>
                                                    <ScoreDistribution value="0" recordCount="0.0" confidence="0.0"/>
                                                    <ScoreDistribution value="1" recordCount="2.0" confidence="1.0"/>
                                                </Node>
                                            </Node>
                                        </Node>
                                    </Node>
                                </Node>
                            </Node>
                            <Node id="41" recordCount="10.0">
                                <SimplePredicate field="Age" operator="greaterThan" value="45.835"/>
                                <Node id="42" recordCount="7.0">
                                    <SimplePredicate field="YearsEmployed" operator="lessOrEqual" value="0.082499996"/>
                                    <Node id="43" recordCount="3.0">
                                        <SimplePredicate field="Debt" operator="lessOrEqual" value="3.0825"/>
                                        <Node id="44" score="0" recordCount="1.0">
                                            <SimplePredicate field="Age" operator="lessOrEqual" value="58.705"/>
                                            <ScoreDistribution value="0" recordCount="1.0" confidence="1.0"/>
                                            <ScoreDistribution value="1" recordCount="0.0" confidence="0.0"/>
                                        </Node>
                                        <Node id="45" score="1" recordCount="2.0">
                                            <SimplePredicate field="Age" operator="greaterThan" value="58.705"/>
                                            <ScoreDistribution value="0" recordCount="0.0" confidence="0.0"/>
                                            <ScoreDistribution value="1" recordCount="2.0" confidence="1.0"/>
                                        </Node>
                                    </Node>
                                    <Node id="46" score="0" recordCount="4.0">
                                        <SimplePredicate field="Debt" operator="greaterThan" value="3.0825"/>
                                        <ScoreDistribution value="0" recordCount="5.0" confidence="1.0"/>
                                        <ScoreDistribution value="1" recordCount="0.0" confidence="0.0"/>
                                    </Node>
                                </Node>
                                <Node id="47" score="1" recordCount="3.0">
                                    <SimplePredicate field="YearsEmployed" operator="greaterThan" value="0.082499996"/>
                                    <ScoreDistribution value="0" recordCount="0.0" confidence="0.0"/>
                                    <ScoreDistribution value="1" recordCount="5.0" confidence="1.0"/>
                                </Node>
                            </Node>
                        </Node>
                        <Node id="48" recordCount="59.0">
                            <SimplePredicate field="YearsEmployed" operator="greaterThan" value="1.395"/>
                            <Node id="49" recordCount="21.0">
                                <SimplePredicate field="Age" operator="lessOrEqual" value="28.955"/>
                                <Node id="50" recordCount="16.0">
                                    <SimplePredicate field="Debt" operator="lessOrEqual" value="10.5"/>
                                    <Node id="51" score="0" recordCount="1.0">
                                        <SimplePredicate field="Debt" operator="lessOrEqual" value="0.33249998"/>
                                        <ScoreDistribution value="0" recordCount="1.0" confidence="1.0"/>
                                        <ScoreDistribution value="1" recordCount="0.0" confidence="0.0"/>
                                    </Node>
                                    <Node id="52" recordCount="15.0">
                                        <SimplePredicate field="Debt" operator="greaterThan" value="0.33249998"/>
                                        <Node id="53" score="1" recordCount="7.0">
                                            <SimplePredicate field="Age" operator="lessOrEqual" value="23.415"/>
                                            <ScoreDistribution value="0" recordCount="0.0" confidence="0.0"/>
                                            <ScoreDistribution value="1" recordCount="11.0" confidence="1.0"/>
                                        </Node>
                                        <Node id="54" recordCount="8.0">
                                            <SimplePredicate field="Age" operator="greaterThan" value="23.415"/>
                                            <Node id="55" recordCount="4.0">
                                                <SimplePredicate field="Debt" operator="lessOrEqual" value="3.875"/>
                                                <Node id="56" score="0" recordCount="1.0">
                                                    <SimplePredicate field="Age" operator="lessOrEqual" value="24.625"/>
                                                    <ScoreDistribution value="0" recordCount="2.0" confidence="1.0"/>
                                                    <ScoreDistribution value="1" recordCount="0.0" confidence="0.0"/>
                                                </Node>
                                                <Node id="57" recordCount="3.0">
                                                    <SimplePredicate field="Age" operator="greaterThan" value="24.625"/>
                                                    <Node id="58" recordCount="2.0">
                                                        <SimplePredicate field="Debt" operator="lessOrEqual" value="2.105"/>
                                                        <Node id="59" score="1" recordCount="1.0">
                                                            <SimplePredicate field="Debt" operator="lessOrEqual" value="1.0"/>
                                                            <ScoreDistribution value="0" recordCount="0.0" confidence="0.0"/>
                                                            <ScoreDistribution value="1" recordCount="1.0" confidence="1.0"/>
                                                        </Node>
                                                        <Node id="60" score="0" recordCount="1.0">
                                                            <SimplePredicate field="Debt" operator="greaterThan" value="1.0"/>
                                                            <ScoreDistribution value="0" recordCount="1.0" confidence="1.0"/>
                                                            <ScoreDistribution value="1" recordCount="0.0" confidence="0.0"/>
                                                        </Node>
                                                    </Node>
                                                    <Node id="61" score="1" recordCount="1.0">
                                                        <SimplePredicate field="Debt" operator="greaterThan" value="2.105"/>
                                                        <ScoreDistribution value="0" recordCount="0.0" confidence="0.0"/>
                                                        <ScoreDistribution value="1" recordCount="3.0" confidence="1.0"/>
                                                    </Node>
                                                </Node>
                                            </Node>
                                            <Node id="62" score="1" recordCount="4.0">
                                                <SimplePredicate field="Debt" operator="greaterThan" value="3.875"/>
                                                <ScoreDistribution value="0" recordCount="0.0" confidence="0.0"/>
                                                <ScoreDistribution value="1" recordCount="7.0" confidence="1.0"/>
                                            </Node>
                                        </Node>
                                    </Node>
                                </Node>
                                <Node id="63" recordCount="5.0">
                                    <SimplePredicate field="Debt" operator="greaterThan" value="10.5"/>
                                    <Node id="64" score="0" recordCount="2.0">
                                        <SimplePredicate field="Debt" operator="lessOrEqual" value="11.690001"/>
                                        <ScoreDistribution value="0" recordCount="3.0" confidence="1.0"/>
                                        <ScoreDistribution value="1" recordCount="0.0" confidence="0.0"/>
                                    </Node>
                                    <Node id="65" recordCount="3.0">
                                        <SimplePredicate field="Debt" operator="greaterThan" value="11.690001"/>
                                        <Node id="66" score="1" recordCount="2.0">
                                            <SimplePredicate field="Debt" operator="lessOrEqual" value="13.0825"/>
                                            <ScoreDistribution value="0" recordCount="0.0" confidence="0.0"/>
                                            <ScoreDistribution value="1" recordCount="4.0" confidence="1.0"/>
                                        </Node>
                                        <Node id="67" score="0" recordCount="1.0">
                                            <SimplePredicate field="Debt" operator="greaterThan" value="13.0825"/>
                                            <ScoreDistribution value="0" recordCount="1.0" confidence="1.0"/>
                                            <ScoreDistribution value="1" recordCount="0.0" confidence="0.0"/>
                                        </Node>
                                    </Node>
                                </Node>
                            </Node>
                            <Node id="68" recordCount="38.0">
                                <SimplePredicate field="Age" operator="greaterThan" value="28.955"/>
                                <Node id="69" recordCount="28.0">
                                    <SimplePredicate field="Income" operator="lessOrEqual" value="1.0"/>
                                    <Node id="70" recordCount="7.0">
                                        <SimplePredicate field="Age" operator="lessOrEqual" value="36.54"/>
                                        <Node id="71" score="0" recordCount="6.0">
                                            <SimplePredicate field="YearsEmployed" operator="lessOrEqual" value="3.0825"/>
                                            <ScoreDistribution value="0" recordCount="14.0" confidence="1.0"/>
                                            <ScoreDistribution value="1" recordCount="0.0" confidence="0.0"/>
                                        </Node>
                                        <Node id="72" score="1" recordCount="1.0">
                                            <SimplePredicate field="YearsEmployed" operator="greaterThan" value="3.0825"/>
                                            <ScoreDistribution value="0" recordCount="0.0" confidence="0.0"/>
                                            <ScoreDistribution value="1" recordCount="1.0" confidence="1.0"/>
                                        </Node>
                                    </Node>
                                    <Node id="73" recordCount="21.0">
                                        <SimplePredicate field="Age" operator="greaterThan" value="36.54"/>
                                        <Node id="74" recordCount="10.0">
                                            <SimplePredicate field="Debt" operator="lessOrEqual" value="4.02"/>
                                            <Node id="75" recordCount="7.0">
                                                <SimplePredicate field="YearsEmployed" operator="lessOrEqual" value="7.5625"/>
                                                <Node id="76" score="1" recordCount="3.0">
                                                    <SimplePredicate field="Debt" operator="lessOrEqual" value="1.3125"/>
                                                    <ScoreDistribution value="0" recordCount="0.0" confidence="0.0"/>
                                                    <ScoreDistribution value="1" recordCount="6.0" confidence="1.0"/>
                                                </Node>
                                                <Node id="77" recordCount="4.0">
                                                    <SimplePredicate field="Debt" operator="greaterThan" value="1.3125"/>
                                                    <Node id="78" score="0" recordCount="2.0">
                                                        <SimplePredicate field="Debt" operator="lessOrEqual" value="3.105"/>
                                                        <ScoreDistribution value="0" recordCount="3.0" confidence="1.0"/>
                                                        <ScoreDistribution value="1" recordCount="0.0" confidence="0.0"/>
                                                    </Node>
                                                    <Node id="79" recordCount="2.0">
                                                        <SimplePredicate field="Debt" operator="greaterThan" value="3.105"/>
                                                        <Node id="80" score="0" recordCount="1.0">
                                                            <SimplePredicate field="YearsEmployed" operator="lessOrEqual" value="3.25"/>
                                                            <ScoreDistribution value="0" recordCount="1.0" confidence="1.0"/>
                                                            <ScoreDistribution value="1" recordCount="0.0" confidence="0.0"/>
                                                        </Node>
                                                        <Node id="81" score="1" recordCount="1.0">
                                                            <SimplePredicate field="YearsEmployed" operator="greaterThan" value="3.25"/>
                                                            <ScoreDistribution value="0" recordCount="0.0" confidence="0.0"/>
                                                            <ScoreDistribution value="1" recordCount="1.0" confidence="1.0"/>
                                                        </Node>
                                                    </Node>
                                                </Node>
                                            </Node>
                                            <Node id="82" score="0" recordCount="3.0">
                                                <SimplePredicate field="YearsEmployed" operator="greaterThan" value="7.5625"/>
                                                <ScoreDistribution value="0" recordCount="7.0" confidence="1.0"/>
                                                <ScoreDistribution value="1" recordCount="0.0" confidence="0.0"/>
                                            </Node>
                                        </Node>
                                        <Node id="83" recordCount="11.0">
                                            <SimplePredicate field="Debt" operator="greaterThan" value="4.02"/>
                                            <Node id="84" score="0" recordCount="1.0">
                                                <SimplePredicate field="Age" operator="lessOrEqual" value="38.955"/>
                                                <ScoreDistribution value="0" recordCount="1.0" confidence="1.0"/>
                                                <ScoreDistribution value="1" recordCount="0.0" confidence="0.0"/>
                                            </Node>
                                            <Node id="85" recordCount="10.0">
                                                <SimplePredicate field="Age" operator="greaterThan" value="38.955"/>
                                                <Node id="86" score="0" recordCount="3.0">
                                                    <SimplePredicate field="YearsEmployed" operator="lessOrEqual" value="3.8325"/>
                                                    <ScoreDistribution value="0" recordCount="3.0" confidence="1.0"/>
                                                    <ScoreDistribution value="1" recordCount="0.0" confidence="0.0"/>
                                                </Node>
                                                <Node id="87" score="1" recordCount="7.0">
                                                    <SimplePredicate field="YearsEmployed" operator="greaterThan" value="3.8325"/>
                                                    <ScoreDistribution value="0" recordCount="0.0" confidence="0.0"/>
                                                    <ScoreDistribution value="1" recordCount="11.0" confidence="1.0"/>
                                                </Node>
                                            </Node>
                                        </Node>
                                    </Node>
                                </Node>
                                <Node id="88" score="0" recordCount="10.0">
                                    <SimplePredicate field="Income" operator="greaterThan" value="1.0"/>
                                    <ScoreDistribution value="0" recordCount="15.0" confidence="1.0"/>
                                    <ScoreDistribution value="1" recordCount="0.0" confidence="0.0"/>
                                </Node>
                            </Node>
                        </Node>
                    </Node>
                </TreeModel>
            </Segment>
            <Segment id="1" weight="1">
                <True/>
                <TreeModel modelName="DecisionTreeClassifier" functionName="classification" missingValuePenalty="1.0">
                    <MiningSchema>
                        <MiningField name="Age" usageType="active"/>
                        <MiningField name="Debt" usageType="active"/>
                        <MiningField name="YearsEmployed" usageType="active"/>
                        <MiningField name="Income" usageType="active"/>
                    </MiningSchema>
                    <Node id="0" recordCount="162.0">
                        <True/>
                        <Node id="1" recordCount="128.0">
                            <SimplePredicate field="YearsEmployed" operator="lessOrEqual" value="2.105"/>
                            <Node id="2" recordCount="12.0">
                                <SimplePredicate field="Debt" operator="lessOrEqual" value="0.22999999"/>
                                <Node id="3" recordCount="7.0">
                                    <SimplePredicate field="YearsEmployed" operator="lessOrEqual" value="0.22999999"/>
                                    <Node id="4" recordCount="5.0">
                                        <SimplePredicate field="YearsEmployed" operator="lessOrEqual" value="0.02"/>
                                        <Node id="5" recordCount="4.0">
                                            <SimplePredicate field="Income" operator="lessOrEqual" value="13.5"/>
                                            <Node id="6" score="0" recordCount="1.0">
                                                <SimplePredicate field="Age" operator="lessOrEqual" value="21.795"/>
                                                <ScoreDistribution value="0" recordCount="1.0" confidence="1.0"/>
                                                <ScoreDistribution value="1" recordCount="0.0" confidence="0.0"/>
                                            </Node>
                                            <Node id="7" score="1" recordCount="3.0">
                                                <SimplePredicate field="Age" operator="greaterThan" value="21.795"/>
                                                <ScoreDistribution value="0" recordCount="0.0" confidence="0.0"/>
                                                <ScoreDistribution value="1" recordCount="3.0" confidence="1.0"/>
                                            </Node>
                                        </Node>
                                        <Node id="8" score="0" recordCount="1.0">
                                            <SimplePredicate field="Income" operator="greaterThan" value="13.5"/>
                                            <ScoreDistribution value="0" recordCount="2.0" confidence="1.0"/>
                                            <ScoreDistribution value="1" recordCount="0.0" confidence="0.0"/>
                                        </Node>
                                    </Node>
                                    <Node id="9" score="1" recordCount="2.0">
                                        <SimplePredicate field="YearsEmployed" operator="greaterThan" value="0.02"/>
                                        <ScoreDistribution value="0" recordCount="0.0" confidence="0.0"/>
                                        <ScoreDistribution value="1" recordCount="6.0" confidence="1.0"/>
                                    </Node>
                                </Node>
                                <Node id="10" recordCount="5.0">
                                    <SimplePredicate field="YearsEmployed" operator="greaterThan" value="0.22999999"/>
                                    <Node id="11" recordCount="4.0">
                                        <SimplePredicate field="Debt" operator="lessOrEqual" value="0.1875"/>
                                        <Node id="12" score="0" recordCount="3.0">
                                            <SimplePredicate field="YearsEmployed" operator="lessOrEqual" value="1.25"/>
                                            <ScoreDistribution value="0" recordCount="9.0" confidence="1.0"/>
                                            <ScoreDistribution value="1" recordCount="0.0" confidence="0.0"/>
                                        </Node>
                                        <Node id="13" score="1" recordCount="1.0">
                                            <SimplePredicate field="YearsEmployed" operator="greaterThan" value="1.25"/>
                                            <ScoreDistribution value="0" recordCount="0.0" confidence="0.0"/>
                                            <ScoreDistribution value="1" recordCount="1.0" confidence="1.0"/>
                                        </Node>
                                    </Node>
                                    <Node id="14" score="1" recordCount="1.0">
                                        <SimplePredicate field="Debt" operator="greaterThan" value="0.1875"/>
                                        <ScoreDistribution value="0" recordCount="0.0" confidence="0.0"/>
                                        <ScoreDistribution value="1" recordCount="1.0" confidence="1.0"/>
                                    </Node>
                                </Node>
                            </Node>
                            <Node id="15" recordCount="116.0">
                                <SimplePredicate field="Debt" operator="greaterThan" value="0.22999999"/>
                                <Node id="16" recordCount="62.0">
                                    <SimplePredicate field="Age" operator="lessOrEqual" value="28.415"/>
                                    <Node id="17" recordCount="60.0">
                                        <SimplePredicate field="Age" operator="lessOrEqual" value="27.92"/>
                                        <Node id="18" recordCount="31.0">
                                            <SimplePredicate field="Debt" operator="lessOrEqual" value="2.7925"/>
                                            <Node id="19" recordCount="15.0">
                                                <SimplePredicate field="Debt" operator="lessOrEqual" value="0.77"/>
                                                <Node id="20" recordCount="13.0">
                                                    <SimplePredicate field="YearsEmployed" operator="lessOrEqual" value="1.23"/>
                                                    <Node id="21" score="0" recordCount="9.0">
                                                        <SimplePredicate field="Income" operator="lessOrEqual" value="20.5"/>
                                                        <ScoreDistribution value="0" recordCount="15.0" confidence="1.0"/>
                                                        <ScoreDistribution value="1" recordCount="0.0" confidence="0.0"/>
                                                    </Node>
                                                    <Node id="22" recordCount="4.0">
                                                        <SimplePredicate field="Income" operator="greaterThan" value="20.5"/>
                                                        <Node id="23" score="1" recordCount="1.0">
                                                            <SimplePredicate field="Income" operator="lessOrEqual" value="33.5"/>
                                                            <ScoreDistribution value="0" recordCount="0.0" confidence="0.0"/>
                                                            <ScoreDistribution value="1" recordCount="1.0" confidence="1.0"/>
                                                        </Node>
                                                        <Node id="24" score="0" recordCount="3.0">
                                                            <SimplePredicate field="Income" operator="greaterThan" value="33.5"/>
                                                            <ScoreDistribution value="0" recordCount="4.0" confidence="1.0"/>
                                                            <ScoreDistribution value="1" recordCount="0.0" confidence="0.0"/>
                                                        </Node>
                                                    </Node>
                                                </Node>
                                                <Node id="25" recordCount="2.0">
                                                    <SimplePredicate field="YearsEmployed" operator="greaterThan" value="1.23"/>
                                                    <Node id="26" score="1" recordCount="1.0">
                                                        <SimplePredicate field="Income" operator="lessOrEqual" value="4.5"/>
                                                        <ScoreDistribution value="0" recordCount="0.0" confidence="0.0"/>
                                                        <ScoreDistribution value="1" recordCount="1.0" confidence="1.0"/>
                                                    </Node>
                                                    <Node id="27" score="0" recordCount="1.0">
                                                        <SimplePredicate field="Income" operator="greaterThan" value="4.5"/>
                                                        <ScoreDistribution value="0" recordCount="1.0" confidence="1.0"/>
                                                        <ScoreDistribution value="1" recordCount="0.0" confidence="0.0"/>
                                                    </Node>
                                                </Node>
                                            </Node>
                                            <Node id="28" score="0" recordCount="16.0">
                                                <SimplePredicate field="Debt" operator="greaterThan" value="0.77"/>
                                                <ScoreDistribution value="0" recordCount="28.0" confidence="1.0"/>
                                                <ScoreDistribution value="1" recordCount="0.0" confidence="0.0"/>
                                            </Node>
                                        </Node>
                                        <Node id="29" recordCount="29.0">
                                            <SimplePredicate field="Debt" operator="greaterThan" value="2.7925"/>
                                            <Node id="30" recordCount="15.0">
                                                <SimplePredicate field="YearsEmployed" operator="lessOrEqual" value="0.45749998"/>
                                                <Node id="31" score="1" recordCount="1.0">
                                                    <SimplePredicate field="Debt" operator="lessOrEqual" value="3.0825"/>
                                                    <ScoreDistribution value="0" recordCount="0.0" confidence="0.0"/>
                                                    <ScoreDistribution value="1" recordCount="2.0" confidence="1.0"/>
                                                </Node>
                                                <Node id="32" recordCount="14.0">
                                                    <SimplePredicate field="Debt" operator="greaterThan" value="3.0825"/>
                                                    <Node id="33" recordCount="7.0">
                                                        <SimplePredicate field="YearsEmployed" operator="lessOrEqual" value="0.26999998"/>
                                                        <Node id="34" score="0" recordCount="4.0">
                                                            <SimplePredicate field="Age" operator="lessOrEqual" value="22.96"/>
                                                            <ScoreDistribution value="0" recordCount="7.0" confidence="1.0"/>
                                                            <ScoreDistribution value="1" recordCount="0.0" confidence="0.0"/>
                                                        </Node>
                                                        <Node id="35" recordCount="3.0">
                                                            <SimplePredicate field="Age" operator="greaterThan" value="22.96"/>
                                                            <Node id="36" score="1" recordCount="1.0">
                                                                <SimplePredicate field="Age" operator="lessOrEqual" value="23.915"/>
                                                                <ScoreDistribution value="0" recordCount="0.0" confidence="0.0"/>
                                                                <ScoreDistribution value="1" recordCount="1.0" confidence="1.0"/>
                                                            </Node>
                                                            <Node id="37" score="0" recordCount="2.0">
                                                                <SimplePredicate field="Age" operator="greaterThan" value="23.915"/>
                                                                <ScoreDistribution value="0" recordCount="3.0" confidence="1.0"/>
                                                                <ScoreDistribution value="1" recordCount="0.0" confidence="0.0"/>
                                                            </Node>
                                                        </Node>
                                                    </Node>
                                                    <Node id="38" score="0" recordCount="7.0">
                                                        <SimplePredicate field="YearsEmployed" operator="greaterThan" value="0.26999998"/>
                                                        <ScoreDistribution value="0" recordCount="15.0" confidence="1.0"/>
                                                        <ScoreDistribution value="1" recordCount="0.0" confidence="0.0"/>
                                                    </Node>
                                                </Node>
                                            </Node>
                                            <Node id="39" recordCount="14.0">
                                                <SimplePredicate field="YearsEmployed" operator="greaterThan" value="0.45749998"/>
                                                <Node id="40" recordCount="7.0">
                                                    <SimplePredicate field="Debt" operator="lessOrEqual" value="9.3325"/>
                                                    <Node id="41" recordCount="2.0">
                                                        <SimplePredicate field="Debt" operator="lessOrEqual" value="4.25"/>
                                                        <Node id="42" score="1" recordCount="1.0">
                                                            <SimplePredicate field="YearsEmployed" operator="lessOrEqual" value="1.0625"/>
                                                            <ScoreDistribution value="0" recordCount="0.0" confidence="0.0"/>
                                                            <ScoreDistribution value="1" recordCount="1.0" confidence="1.0"/>
                                                        </Node>
                                                        <Node id="43" score="0" recordCount="1.0">
                                                            <SimplePredicate field="YearsEmployed" operator="greaterThan" value="1.0625"/>
                                                            <ScoreDistribution value="0" recordCount="1.0" confidence="1.0"/>
                                                            <ScoreDistribution value="1" recordCount="0.0" confidence="0.0"/>
                                                        </Node>
                                                    </Node>
                                                    <Node id="44" recordCount="5.0">
                                                        <SimplePredicate field="Debt" operator="greaterThan" value="4.25"/>
                                                        <Node id="45" score="1" recordCount="1.0">
                                                            <SimplePredicate field="YearsEmployed" operator="lessOrEqual" value="0.52"/>
                                                            <ScoreDistribution value="0" recordCount="0.0" confidence="0.0"/>
                                                            <ScoreDistribution value="1" recordCount="5.0" confidence="1.0"/>
                                                        </Node>
                                                        <Node id="46" recordCount="4.0">
                                                            <SimplePredicate field="YearsEmployed" operator="greaterThan" value="0.52"/>
                                                            <Node id="47" score="0" recordCount="1.0">
                                                                <SimplePredicate field="YearsEmployed" operator="lessOrEqual" value="0.77"/>
                                                                <ScoreDistribution value="0" recordCount="1.0" confidence="1.0"/>
                                                                <ScoreDistribution value="1" recordCount="0.0" confidence="0.0"/>
                                                            </Node>
                                                            <Node id="48" score="1" recordCount="3.0">
                                                                <SimplePredicate field="YearsEmployed" operator="greaterThan" value="0.77"/>
                                                                <ScoreDistribution value="0" recordCount="0.0" confidence="0.0"/>
                                                                <ScoreDistribution value="1" recordCount="5.0" confidence="1.0"/>
                                                            </Node>
                                                        </Node>
                                                    </Node>
                                                </Node>
                                                <Node id="49" recordCount="7.0">
                                                    <SimplePredicate field="Debt" operator="greaterThan" value="9.3325"/>
                                                    <Node id="50" recordCount="3.0">
                                                        <SimplePredicate field="YearsEmployed" operator="lessOrEqual" value="0.7925"/>
                                                        <Node id="51" score="0" recordCount="1.0">
                                                            <SimplePredicate field="Debt" operator="lessOrEqual" value="10.9575"/>
                                                            <ScoreDistribution value="0" recordCount="1.0" confidence="1.0"/>
                                                            <ScoreDistribution value="1" recordCount="0.0" confidence="0.0"/>
                                                        </Node>
                                                        <Node id="52" score="1" recordCount="2.0">
                                                            <SimplePredicate field="Debt" operator="greaterThan" value="10.9575"/>
                                                            <ScoreDistribution value="0" recordCount="0.0" confidence="0.0"/>
                                                            <ScoreDistribution value="1" recordCount="2.0" confidence="1.0"/>
                                                        </Node>
                                                    </Node>
                                                    <Node id="53" score="0" recordCount="4.0">
                                                        <SimplePredicate field="YearsEmployed" operator="greaterThan" value="0.7925"/>
                                                        <ScoreDistribution value="0" recordCount="5.0" confidence="1.0"/>
                                                        <ScoreDistribution value="1" recordCount="0.0" confidence="0.0"/>
                                                    </Node>
                                                </Node>
                                            </Node>
                                        </Node>
                                    </Node>
                                    <Node id="54" score="1" recordCount="2.0">
                                        <SimplePredicate field="Age" operator="greaterThan" value="27.92"/>
                                        <ScoreDistribution value="0" recordCount="0.0" confidence="0.0"/>
                                        <ScoreDistribution value="1" recordCount="4.0" confidence="1.0"/>
                                    </Node>
                                </Node>
                                <Node id="55" recordCount="54.0">
                                    <SimplePredicate field="Age" operator="greaterThan" value="28.415"/>
                                    <Node id="56" recordCount="24.0">
                                        <SimplePredicate field="Debt" operator="lessOrEqual" value="1.73"/>
                                        <Node id="57" recordCount="23.0">
                                            <SimplePredicate field="Debt" operator="lessOrEqual" value="1.6675"/>
                                            <Node id="58" recordCount="20.0">
                                                <SimplePredicate field="Age" operator="lessOrEqual" value="42.125"/>
                                                <Node id="59" score="0" recordCount="13.0">
                                                    <SimplePredicate field="Age" operator="lessOrEqual" value="37.04"/>
                                                    <ScoreDistribution value="0" recordCount="19.0" confidence="1.0"/>
                                                    <ScoreDistribution value="1" recordCount="0.0" confidence="0.0"/>
                                                </Node>
                                                <Node id="60" recordCount="7.0">
                                                    <SimplePredicate field="Age" operator="greaterThan" value="37.04"/>
                                                    <Node id="61" score="1" recordCount="1.0">
                                                        <SimplePredicate field="Age" operator="lessOrEqual" value="38.5"/>
                                                        <ScoreDistribution value="0" recordCount="0.0" confidence="0.0"/>
                                                        <ScoreDistribution value="1" recordCount="2.0" confidence="1.0"/>
                                                    </Node>
                                                    <Node id="62" score="0" recordCount="6.0">
                                                        <SimplePredicate field="Age" operator="greaterThan" value="38.5"/>
                                                        <ScoreDistribution value="0" recordCount="9.0" confidence="1.0"/>
                                                        <ScoreDistribution value="1" recordCount="0.0" confidence="0.0"/>
                                                    </Node>
                                                </Node>
                                            </Node>
                                            <Node id="63" recordCount="3.0">
                                                <SimplePredicate field="Age" operator="greaterThan" value="42.125"/>
                                                <Node id="64" score="1" recordCount="1.0">
                                                    <SimplePredicate field="Age" operator="lessOrEqual" value="44.205"/>
                                                    <ScoreDistribution value="0" recordCount="0.0" confidence="0.0"/>
                                                    <ScoreDistribution value="1" recordCount="1.0" confidence="1.0"/>
                                                </Node>
                                                <Node id="65" recordCount="2.0">
                                                    <SimplePredicate field="Age" operator="greaterThan" value="44.205"/>
                                                    <Node id="66" score="0" recordCount="1.0">
                                                        <SimplePredicate field="Age" operator="lessOrEqual" value="52.5"/>
                                                        <ScoreDistribution value="0" recordCount="1.0" confidence="1.0"/>
                                                        <ScoreDistribution value="1" recordCount="0.0" confidence="0.0"/>
                                                    </Node>
                                                    <Node id="67" score="1" recordCount="1.0">
                                                        <SimplePredicate field="Age" operator="greaterThan" value="52.5"/>
                                                        <ScoreDistribution value="0" recordCount="0.0" confidence="0.0"/>
                                                        <ScoreDistribution value="1" recordCount="1.0" confidence="1.0"/>
                                                    </Node>
                                                </Node>
                                            </Node>
                                        </Node>
                                        <Node id="68" score="1" recordCount="1.0">
                                            <SimplePredicate field="Debt" operator="greaterThan" value="1.6675"/>
                                            <ScoreDistribution value="0" recordCount="0.0" confidence="0.0"/>
                                            <ScoreDistribution value="1" recordCount="1.0" confidence="1.0"/>
                                        </Node>
                                    </Node>
                                    <Node id="69" score="0" recordCount="30.0">
                                        <SimplePredicate field="Debt" operator="greaterThan" value="1.73"/>
                                        <ScoreDistribution value="0" recordCount="53.0" confidence="1.0"/>
                                        <ScoreDistribution value="1" recordCount="0.0" confidence="0.0"/>
                                    </Node>
                                </Node>
                            </Node>
                        </Node>
                        <Node id="70" recordCount="34.0">
                            <SimplePredicate field="YearsEmployed" operator="greaterThan" value="2.105"/>
                            <Node id="71" recordCount="27.0">
                                <SimplePredicate field="Income" operator="lessOrEqual" value="0.5"/>
                                <Node id="72" recordCount="25.0">
                                    <SimplePredicate field="YearsEmployed" operator="lessOrEqual" value="11.75"/>
                                    <Node id="73" recordCount="12.0">
                                        <SimplePredicate field="YearsEmployed" operator="lessOrEqual" value="4.0"/>
                                        <Node id="74" recordCount="11.0">
                                            <SimplePredicate field="YearsEmployed" operator="lessOrEqual" value="3.4575"/>
                                            <Node id="75" score="0" recordCount="1.0">
                                                <SimplePredicate field="YearsEmployed" operator="lessOrEqual" value="2.4575"/>
                                                <ScoreDistribution value="0" recordCount="1.0" confidence="1.0"/>
                                                <ScoreDistribution value="1" recordCount="0.0" confidence="0.0"/>
                                            </Node>
                                            <Node id="76" recordCount="10.0">
                                                <SimplePredicate field="YearsEmployed" operator="greaterThan" value="2.4575"/>
                                                <Node id="77" recordCount="7.0">
                                                    <SimplePredicate field="Debt" operator="lessOrEqual" value="8.25"/>
                                                    <Node id="78" score="1" recordCount="3.0">
                                                        <SimplePredicate field="Age" operator="lessOrEqual" value="36.125"/>
                                                        <ScoreDistribution value="0" recordCount="0.0" confidence="0.0"/>
                                                        <ScoreDistribution value="1" recordCount="3.0" confidence="1.0"/>
                                                    </Node>
                                                    <Node id="79" recordCount="4.0">
                                                        <SimplePredicate field="Age" operator="greaterThan" value="36.125"/>
                                                        <Node id="80" score="1" recordCount="1.0">
                                                            <SimplePredicate field="Debt" operator="lessOrEqual" value="0.75"/>
                                                            <ScoreDistribution value="0" recordCount="0.0" confidence="0.0"/>
                                                            <ScoreDistribution value="1" recordCount="1.0" confidence="1.0"/>
                                                        </Node>
                                                        <Node id="81" score="0" recordCount="3.0">
                                                            <SimplePredicate field="Debt" operator="greaterThan" value="0.75"/>
                                                            <ScoreDistribution value="0" recordCount="3.0" confidence="1.0"/>
                                                            <ScoreDistribution value="1" recordCount="0.0" confidence="0.0"/>
                                                        </Node>
                                                    </Node>
                                                </Node>
                                                <Node id="82" score="1" recordCount="3.0">
                                                    <SimplePredicate field="Debt" operator="greaterThan" value="8.25"/>
                                                    <ScoreDistribution value="0" recordCount="0.0" confidence="0.0"/>
                                                    <ScoreDistribution value="1" recordCount="4.0" confidence="1.0"/>
                                                </Node>
                                            </Node>
                                        </Node>
                                        <Node id="83" score="0" recordCount="1.0">
                                            <SimplePredicate field="YearsEmployed" operator="greaterThan" value="3.4575"/>
                                            <ScoreDistribution value="0" recordCount="2.0" confidence="1.0"/>
                                            <ScoreDistribution value="1" recordCount="0.0" confidence="0.0"/>
                                        </Node>
                                    </Node>
                                    <Node id="84" recordCount="13.0">
                                        <SimplePredicate field="YearsEmployed" operator="greaterThan" value="4.0"/>
                                        <Node id="85" recordCount="4.0">
                                            <SimplePredicate field="Debt" operator="lessOrEqual" value="2.5225"/>
                                            <Node id="86" score="1" recordCount="2.0">
                                                <SimplePredicate field="YearsEmployed" operator="lessOrEqual" value="5.625"/>
                                                <ScoreDistribution value="0" recordCount="0.0" confidence="0.0"/>
                                                <ScoreDistribution value="1" recordCount="2.0" confidence="1.0"/>
                                            </Node>
                                            <Node id="87" score="0" recordCount="2.0">
                                                <SimplePredicate field="YearsEmployed" operator="greaterThan" value="5.625"/>
                                                <ScoreDistribution value="0" recordCount="2.0" confidence="1.0"/>
                                                <ScoreDistribution value="1" recordCount="0.0" confidence="0.0"/>
                                            </Node>
                                        </Node>
                                        <Node id="88" score="1" recordCount="9.0">
                                            <SimplePredicate field="Debt" operator="greaterThan" value="2.5225"/>
                                            <ScoreDistribution value="0" recordCount="0.0" confidence="0.0"/>
                                            <ScoreDistribution value="1" recordCount="15.0" confidence="1.0"/>
                                        </Node>
                                    </Node>
                                </Node>
                                <Node id="89" score="0" recordCount="2.0">
                                    <SimplePredicate field="YearsEmployed" operator="greaterThan" value="11.75"/>
                                    <ScoreDistribution value="0" recordCount="4.0" confidence="1.0"/>
                                    <ScoreDistribution value="1" recordCount="0.0" confidence="0.0"/>
                                </Node>
                            </Node>
                            <Node id="90" recordCount="7.0">
                                <SimplePredicate field="Income" operator="greaterThan" value="0.5"/>
                                <Node id="91" score="0" recordCount="6.0">
                                    <SimplePredicate field="Income" operator="lessOrEqual" value="228.5"/>
                                    <ScoreDistribution value="0" recordCount="8.0" confidence="1.0"/>
                                    <ScoreDistribution value="1" recordCount="0.0" confidence="0.0"/>
                                </Node>
                                <Node id="92" score="1" recordCount="1.0">
                                    <SimplePredicate field="Income" operator="greaterThan" value="228.5"/>
                                    <ScoreDistribution value="0" recordCount="0.0" confidence="0.0"/>
                                    <ScoreDistribution value="1" recordCount="2.0" confidence="1.0"/>
                                </Node>
                            </Node>
                        </Node>
                    </Node>
                </TreeModel>
            </Segment>
            <Segment id="2" weight="1">
                <True/>
                <TreeModel modelName="DecisionTreeClassifier" functionName="classification" missingValuePenalty="1.0">
                    <MiningSchema>
                        <MiningField name="Age" usageType="active"/>
                        <MiningField name="Debt" usageType="active"/>
                        <MiningField name="YearsEmployed" usageType="active"/>
                        <MiningField name="Income" usageType="active"/>
                    </MiningSchema>
                    <Node id="0" recordCount="155.0">
                        <True/>
                        <Node id="1" recordCount="71.0">
                            <SimplePredicate field="Age" operator="lessOrEqual" value="26.165"/>
                            <Node id="2" recordCount="50.0">
                                <SimplePredicate field="Debt" operator="lessOrEqual" value="7.585"/>
                                <Node id="3" recordCount="47.0">
                                    <SimplePredicate field="YearsEmployed" operator="lessOrEqual" value="2.9175"/>
                                    <Node id="4" recordCount="39.0">
                                        <SimplePredicate field="Age" operator="lessOrEqual" value="25.045"/>
                                        <Node id="5" recordCount="8.0">
                                            <SimplePredicate field="Debt" operator="lessOrEqual" value="0.20750001"/>
                                            <Node id="6" recordCount="7.0">
                                                <SimplePredicate field="YearsEmployed" operator="lessOrEqual" value="1.625"/>
                                                <Node id="7" recordCount="6.0">
                                                    <SimplePredicate field="Income" operator="lessOrEqual" value="20.5"/>
                                                    <Node id="8" recordCount="2.0">
                                                        <SimplePredicate field="YearsEmployed" operator="lessOrEqual" value="0.125"/>
                                                        <Node id="9" score="0" recordCount="1.0">
                                                            <SimplePredicate field="Income" operator="lessOrEqual" value="0.5"/>
                                                            <ScoreDistribution value="0" recordCount="1.0" confidence="1.0"/>
                                                            <ScoreDistribution value="1" recordCount="0.0" confidence="0.0"/>
                                                        </Node>
                                                        <Node id="10" score="1" recordCount="1.0">
                                                            <SimplePredicate field="Income" operator="greaterThan" value="0.5"/>
                                                            <ScoreDistribution value="0" recordCount="0.0" confidence="0.0"/>
                                                            <ScoreDistribution value="1" recordCount="2.0" confidence="1.0"/>
                                                        </Node>
                                                    </Node>
                                                    <Node id="11" score="0" recordCount="4.0">
                                                        <SimplePredicate field="YearsEmployed" operator="greaterThan" value="0.125"/>
                                                        <ScoreDistribution value="0" recordCount="9.0" confidence="1.0"/>
                                                        <ScoreDistribution value="1" recordCount="0.0" confidence="0.0"/>
                                                    </Node>
                                                </Node>
                                                <Node id="12" score="1" recordCount="1.0">
                                                    <SimplePredicate field="Income" operator="greaterThan" value="20.5"/>
                                                    <ScoreDistribution value="0" recordCount="0.0" confidence="0.0"/>
                                                    <ScoreDistribution value="1" recordCount="1.0" confidence="1.0"/>
                                                </Node>
                                            </Node>
                                            <Node id="13" score="1" recordCount="1.0">
                                                <SimplePredicate field="YearsEmployed" operator="greaterThan" value="1.625"/>
                                                <ScoreDistribution value="0" recordCount="0.0" confidence="0.0"/>
                                                <ScoreDistribution value="1" recordCount="2.0" confidence="1.0"/>
                                            </Node>
                                        </Node>
                                        <Node id="14" recordCount="31.0">
                                            <SimplePredicate field="Debt" operator="greaterThan" value="0.20750001"/>
                                            <Node id="15" recordCount="21.0">
                                                <SimplePredicate field="Debt" operator="lessOrEqual" value="2.6675"/>
                                                <Node id="16" score="0" recordCount="19.0">
                                                    <SimplePredicate field="YearsEmployed" operator="lessOrEqual" value="1.7925"/>
                                                    <ScoreDistribution value="0" recordCount="34.0" confidence="1.0"/>
                                                    <ScoreDistribution value="1" recordCount="0.0" confidence="0.0"/>
                                                </Node>
                                                <Node id="17" recordCount="2.0">
                                                    <SimplePredicate field="YearsEmployed" operator="greaterThan" value="1.7925"/>
                                                    <Node id="18" score="1" recordCount="1.0">
                                                        <SimplePredicate field="Debt" operator="lessOrEqual" value="0.9375"/>
                                                        <ScoreDistribution value="0" recordCount="0.0" confidence="0.0"/>
                                                        <ScoreDistribution value="1" recordCount="1.0" confidence="1.0"/>
                                                    </Node>
                                                    <Node id="19" score="0" recordCount="1.0">
                                                        <SimplePredicate field="Debt" operator="greaterThan" value="0.9375"/>
                                                        <ScoreDistribution value="0" recordCount="1.0" confidence="1.0"/>
                                                        <ScoreDistribution value="1" recordCount="0.0" confidence="0.0"/>
                                                    </Node>
                                                </Node>
                                            </Node>
                                            <Node id="20" recordCount="10.0">
                                                <SimplePredicate field="Debt" operator="greaterThan" value="2.6675"/>
                                                <Node id="21" recordCount="9.0">
                                                    <SimplePredicate field="Age" operator="lessOrEqual" value="22.165"/>
                                                    <Node id="22" score="1" recordCount="1.0">
                                                        <SimplePredicate field="Debt" operator="lessOrEqual" value="3.27"/>
                                                        <ScoreDistribution value="0" recordCount="0.0" confidence="0.0"/>
                                                        <ScoreDistribution value="1" recordCount="1.0" confidence="1.0"/>
                                                    </Node>
                                                    <Node id="23" recordCount="8.0">
                                                        <SimplePredicate field="Debt" operator="greaterThan" value="3.27"/>
                                                        <Node id="24" score="0" recordCount="5.0">
                                                            <SimplePredicate field="YearsEmployed" operator="lessOrEqual" value="0.45749998"/>
                                                            <ScoreDistribution value="0" recordCount="7.0" confidence="1.0"/>
                                                            <ScoreDistribution value="1" recordCount="0.0" confidence="0.0"/>
                                                        </Node>
                                                        <Node id="25" recordCount="3.0">
                                                            <SimplePredicate field="YearsEmployed" operator="greaterThan" value="0.45749998"/>
                                                            <Node id="26" score="1" recordCount="1.0">
                                                                <SimplePredicate field="YearsEmployed" operator="lessOrEqual" value="0.52"/>
                                                                <ScoreDistribution value="0" recordCount="0.0" confidence="0.0"/>
                                                                <ScoreDistribution value="1" recordCount="1.0" confidence="1.0"/>
                                                            </Node>
                                                            <Node id="27" score="0" recordCount="2.0">
                                                                <SimplePredicate field="YearsEmployed" operator="greaterThan" value="0.52"/>
                                                                <ScoreDistribution value="0" recordCount="7.0" confidence="1.0"/>
                                                                <ScoreDistribution value="1" recordCount="0.0" confidence="0.0"/>
                                                            </Node>
                                                        </Node>
                                                    </Node>
                                                </Node>
                                                <Node id="28" score="1" recordCount="1.0">
                                                    <SimplePredicate field="Age" operator="greaterThan" value="22.165"/>
                                                    <ScoreDistribution value="0" recordCount="0.0" confidence="0.0"/>
                                                    <ScoreDistribution value="1" recordCount="1.0" confidence="1.0"/>
                                                </Node>
                                            </Node>
                                        </Node>
                                    </Node>
                                    <Node id="29" recordCount="8.0">
                                        <SimplePredicate field="Age" operator="greaterThan" value="25.045"/>
                                        <Node id="30" recordCount="5.0">
                                            <SimplePredicate field="YearsEmployed" operator="lessOrEqual" value="1.48"/>
                                            <Node id="31" recordCount="2.0">
                                                <SimplePredicate field="YearsEmployed" operator="lessOrEqual" value="0.625"/>
                                                <Node id="32" score="1" recordCount="1.0">
                                                    <SimplePredicate field="Age" operator="lessOrEqual" value="25.835"/>
                                                    <ScoreDistribution value="0" recordCount="0.0" confidence="0.0"/>
                                                    <ScoreDistribution value="1" recordCount="1.0" confidence="1.0"/>
                                                </Node>
                                                <Node id="33" score="0" recordCount="1.0">
                                                    <SimplePredicate field="Age" operator="greaterThan" value="25.835"/>
                                                    <ScoreDistribution value="0" recordCount="2.0" confidence="1.0"/>
                                                    <ScoreDistribution value="1" recordCount="0.0" confidence="0.0"/>
                                                </Node>
                                            </Node>
                                            <Node id="34" score="1" recordCount="3.0">
                                                <SimplePredicate field="YearsEmployed" operator="greaterThan" value="0.625"/>
                                                <ScoreDistribution value="0" recordCount="0.0" confidence="0.0"/>
                                                <ScoreDistribution value="1" recordCount="6.0" confidence="1.0"/>
                                            </Node>
                                        </Node>
                                        <Node id="35" score="0" recordCount="3.0">
                                            <SimplePredicate field="YearsEmployed" operator="greaterThan" value="1.48"/>
                                            <ScoreDistribution value="0" recordCount="6.0" confidence="1.0"/>
                                            <ScoreDistribution value="1" recordCount="0.0" confidence="0.0"/>
                                        </Node>
                                    </Node>
                                </Node>
                                <Node id="36" recordCount="3.0">
                                    <SimplePredicate field="YearsEmployed" operator="greaterThan" value="2.9175"/>
                                    <Node id="37" score="1" recordCount="2.0">
                                        <SimplePredicate field="Debt" operator="lessOrEqual" value="2.1675"/>
                                        <ScoreDistribution value="0" recordCount="0.0" confidence="0.0"/>
                                        <ScoreDistribution value="1" recordCount="3.0" confidence="1.0"/>
                                    </Node>
                                    <Node id="38" score="0" recordCount="1.0">
                                        <SimplePredicate field="Debt" operator="greaterThan" value="2.1675"/>
                                        <ScoreDistribution value="0" recordCount="1.0" confidence="1.0"/>
                                        <ScoreDistribution value="1" recordCount="0.0" confidence="0.0"/>
                                    </Node>
                                </Node>
                            </Node>
                            <Node id="39" recordCount="21.0">
                                <SimplePredicate field="Debt" operator="greaterThan" value="7.585"/>
                                <Node id="40" score="0" recordCount="4.0">
                                    <SimplePredicate field="YearsEmployed" operator="lessOrEqual" value="0.4375"/>
                                    <ScoreDistribution value="0" recordCount="4.0" confidence="1.0"/>
                                    <ScoreDistribution value="1" recordCount="0.0" confidence="0.0"/>
                                </Node>
                                <Node id="41" recordCount="17.0">
                                    <SimplePredicate field="YearsEmployed" operator="greaterThan" value="0.4375"/>
                                    <Node id="42" recordCount="15.0">
                                        <SimplePredicate field="Income" operator="lessOrEqual" value="228.5"/>
                                        <Node id="43" recordCount="14.0">
                                            <SimplePredicate field="Income" operator="lessOrEqual" value="165.5"/>
                                            <Node id="44" recordCount="10.0">
                                                <SimplePredicate field="YearsEmployed" operator="lessOrEqual" value="2.5425"/>
                                                <Node id="45" score="0" recordCount="3.0">
                                                    <SimplePredicate field="Age" operator="lessOrEqual" value="20.085"/>
                                                    <ScoreDistribution value="0" recordCount="5.0" confidence="1.0"/>
                                                    <ScoreDistribution value="1" recordCount="0.0" confidence="0.0"/>
                                                </Node>
                                                <Node id="46" recordCount="7.0">
                                                    <SimplePredicate field="Age" operator="greaterThan" value="20.085"/>
                                                    <Node id="47" score="1" recordCount="6.0">
                                                        <SimplePredicate field="YearsEmployed" operator="lessOrEqual" value="2.0225"/>
                                                        <ScoreDistribution value="0" recordCount="0.0" confidence="0.0"/>
                                                        <ScoreDistribution value="1" recordCount="12.0" confidence="1.0"/>
                                                    </Node>
                                                    <Node id="48" score="0" recordCount="1.0">
                                                        <SimplePredicate field="YearsEmployed" operator="greaterThan" value="2.0225"/>
                                                        <ScoreDistribution value="0" recordCount="2.0" confidence="1.0"/>
                                                        <ScoreDistribution value="1" recordCount="0.0" confidence="0.0"/>
                                                    </Node>
                                                </Node>
                                            </Node>
                                            <Node id="49" score="1" recordCount="4.0">
                                                <SimplePredicate field="YearsEmployed" operator="greaterThan" value="2.5425"/>
                                                <ScoreDistribution value="0" recordCount="0.0" confidence="0.0"/>
                                                <ScoreDistribution value="1" recordCount="7.0" confidence="1.0"/>
                                            </Node>
                                        </Node>
                                        <Node id="50" score="0" recordCount="1.0">
                                            <SimplePredicate field="Income" operator="greaterThan" value="165.5"/>
                                            <ScoreDistribution value="0" recordCount="2.0" confidence="1.0"/>
                                            <ScoreDistribution value="1" recordCount="0.0" confidence="0.0"/>
                                        </Node>
                                    </Node>
                                    <Node id="51" score="1" recordCount="2.0">
                                        <SimplePredicate field="Income" operator="greaterThan" value="228.5"/>
                                        <ScoreDistribution value="0" recordCount="0.0" confidence="0.0"/>
                                        <ScoreDistribution value="1" recordCount="5.0" confidence="1.0"/>
                                    </Node>
                                </Node>
                            </Node>
                        </Node>
                        <Node id="52" recordCount="84.0">
                            <SimplePredicate field="Age" operator="greaterThan" value="26.165"/>
                            <Node id="53" recordCount="8.0">
                                <SimplePredicate field="Debt" operator="lessOrEqual" value="0.4375"/>
                                <Node id="54" recordCount="2.0">
                                    <SimplePredicate field="Age" operator="lessOrEqual" value="37.08"/>
                                    <Node id="55" score="1" recordCount="1.0">
                                        <SimplePredicate field="Age" operator="lessOrEqual" value="32.375"/>
                                        <ScoreDistribution value="0" recordCount="0.0" confidence="0.0"/>
                                        <ScoreDistribution value="1" recordCount="1.0" confidence="1.0"/>
                                    </Node>
                                    <Node id="56" score="0" recordCount="1.0">
                                        <SimplePredicate field="Age" operator="greaterThan" value="32.375"/>
                                        <ScoreDistribution value="0" recordCount="1.0" confidence="1.0"/>
                                        <ScoreDistribution value="1" recordCount="0.0" confidence="0.0"/>
                                    </Node>
                                </Node>
                                <Node id="57" score="1" recordCount="6.0">
                                    <SimplePredicate field="Age" operator="greaterThan" value="37.08"/>
                                    <ScoreDistribution value="0" recordCount="0.0" confidence="0.0"/>
                                    <ScoreDistribution value="1" recordCount="9.0" confidence="1.0"/>
                                </Node>
                            </Node>
                            <Node id="58" recordCount="76.0">
                                <SimplePredicate field="Debt" operator="greaterThan" value="0.4375"/>
                                <Node id="59" recordCount="75.0">
                                    <SimplePredicate field="Income" operator="lessOrEqual" value="359.0"/>
                                    <Node id="60" recordCount="58.0">
                                        <SimplePredicate field="YearsEmployed" operator="lessOrEqual" value="3.125"/>
                                        <Node id="61" recordCount="9.0">
                                            <SimplePredicate field="Age" operator="lessOrEqual" value="28.625"/>
                                            <Node id="62" score="0" recordCount="7.0">
                                                <SimplePredicate field="Age" operator="lessOrEqual" value="27.79"/>
                                                <ScoreDistribution value="0" recordCount="16.0" confidence="1.0"/>
                                                <ScoreDistribution value="1" recordCount="0.0" confidence="0.0"/>
                                            </Node>
                                            <Node id="63" score="1" recordCount="2.0">
                                                <SimplePredicate field="Age" operator="greaterThan" value="27.79"/>
                                                <ScoreDistribution value="0" recordCount="0.0" confidence="0.0"/>
                                                <ScoreDistribution value="1" recordCount="3.0" confidence="1.0"/>
                                            </Node>
                                        </Node>
                                        <Node id="64" recordCount="49.0">
                                            <SimplePredicate field="Age" operator="greaterThan" value="28.625"/>
                                            <Node id="65" recordCount="15.0">
                                                <SimplePredicate field="Debt" operator="lessOrEqual" value="1.73"/>
                                                <Node id="66" score="0" recordCount="14.0">
                                                    <SimplePredicate field="Debt" operator="lessOrEqual" value="1.6675"/>
                                                    <ScoreDistribution value="0" recordCount="20.0" confidence="1.0"/>
                                                    <ScoreDistribution value="1" recordCount="0.0" confidence="0.0"/>
                                                </Node>
                                                <Node id="67" score="1" recordCount="1.0">
                                                    <SimplePredicate field="Debt" operator="greaterThan" value="1.6675"/>
                                                    <ScoreDistribution value="0" recordCount="0.0" confidence="0.0"/>
                                                    <ScoreDistribution value="1" recordCount="2.0" confidence="1.0"/>
                                                </Node>
                                            </Node>
                                            <Node id="68" score="0" recordCount="34.0">
                                                <SimplePredicate field="Debt" operator="greaterThan" value="1.73"/>
                                                <ScoreDistribution value="0" recordCount="57.0" confidence="1.0"/>
                                                <ScoreDistribution value="1" recordCount="0.0" confidence="0.0"/>
                                            </Node>
                                        </Node>
                                    </Node>
                                    <Node id="69" recordCount="17.0">
                                        <SimplePredicate field="YearsEmployed" operator="greaterThan" value="3.125"/>
                                        <Node id="70" recordCount="9.0">
                                            <SimplePredicate field="Debt" operator="lessOrEqual" value="4.25"/>
                                            <Node id="71" recordCount="6.0">
                                                <SimplePredicate field="Age" operator="lessOrEqual" value="34.0"/>
                                                <Node id="72" recordCount="4.0">
                                                    <SimplePredicate field="YearsEmployed" operator="lessOrEqual" value="5.625"/>
                                                    <Node id="73" score="1" recordCount="2.0">
                                                        <SimplePredicate field="Debt" operator="lessOrEqual" value="2.125"/>
                                                        <ScoreDistribution value="0" recordCount="0.0" confidence="0.0"/>
                                                        <ScoreDistribution value="1" recordCount="2.0" confidence="1.0"/>
                                                    </Node>
                                                    <Node id="74" recordCount="2.0">
                                                        <SimplePredicate field="Debt" operator="greaterThan" value="2.125"/>
                                                        <Node id="75" score="1" recordCount="1.0">
                                                            <SimplePredicate field="YearsEmployed" operator="lessOrEqual" value="3.3325"/>
                                                            <ScoreDistribution value="0" recordCount="0.0" confidence="0.0"/>
                                                            <ScoreDistribution value="1" recordCount="2.0" confidence="1.0"/>
                                                        </Node>
                                                        <Node id="76" score="0" recordCount="1.0">
                                                            <SimplePredicate field="YearsEmployed" operator="greaterThan" value="3.3325"/>
                                                            <ScoreDistribution value="0" recordCount="2.0" confidence="1.0"/>
                                                            <ScoreDistribution value="1" recordCount="0.0" confidence="0.0"/>
                                                        </Node>
                                                    </Node>
                                                </Node>
                                                <Node id="77" score="0" recordCount="2.0">
                                                    <SimplePredicate field="YearsEmployed" operator="greaterThan" value="5.625"/>
                                                    <ScoreDistribution value="0" recordCount="4.0" confidence="1.0"/>
                                                    <ScoreDistribution value="1" recordCount="0.0" confidence="0.0"/>
                                                </Node>
                                            </Node>
                                            <Node id="78" score="0" recordCount="3.0">
