<?xml version="1.0" encoding="UTF-8" standalone="yes"?>
<PMML xmlns="http://www.dmg.org/PMML-4_4" xmlns:data="http://jpmml.org/jpmml-model/InlineTable" version="4.4">
	<Header>
		<Application name="JPMML-SkLearn" version="1.6.28"/>
		<Timestamp>2021-09-07T14:34:36Z</Timestamp>
	</Header>
	<DataDictionary>
		<DataField name="MEDV" optype="continuous" dataType="double"/>
		<DataField name="CRIM" optype="continuous" dataType="float"/>
		<DataField name="ZN" optype="continuous" dataType="float"/>
		<DataField name="INDUS" optype="continuous" dataType="float"/>
		<DataField name="NOX" optype="continuous" dataType="float"/>
		<DataField name="RM" optype="continuous" dataType="float"/>
		<DataField name="AGE" optype="continuous" dataType="float"/>
		<DataField name="DIS" optype="continuous" dataType="float"/>
		<DataField name="RAD" optype="continuous" dataType="float"/>
		<DataField name="PTRATIO" optype="continuous" dataType="float"/>
	</DataDictionary>
	<MiningModel functionName="regression" algorithmName="sklearn.ensemble._forest.RandomForestRegressor">
		<MiningSchema>
			<MiningField name="MEDV" usageType="target"/>
			<MiningField name="RM"/>
			<MiningField name="CRIM"/>
			<MiningField name="AGE"/>
			<MiningField name="NOX"/>
			<MiningField name="PTRATIO"/>
			<MiningField name="DIS"/>
			<MiningField name="RAD"/>
			<MiningField name="INDUS"/>
			<MiningField name="ZN"/>
		</MiningSchema>
		<LocalTransformations>
			<DerivedField name="double(RM)" optype="continuous" dataType="double">
				<FieldRef field="RM"/>
			</DerivedField>
			<DerivedField name="double(CRIM)" optype="continuous" dataType="double">
				<FieldRef field="CRIM"/>
			</DerivedField>
			<DerivedField name="double(AGE)" optype="continuous" dataType="double">
				<FieldRef field="AGE"/>
			</DerivedField>
			<DerivedField name="double(NOX)" optype="continuous" dataType="double">
				<FieldRef field="NOX"/>
			</DerivedField>
			<DerivedField name="double(PTRATIO)" optype="continuous" dataType="double">
				<FieldRef field="PTRATIO"/>
			</DerivedField>
			<DerivedField name="double(DIS)" optype="continuous" dataType="double">
				<FieldRef field="DIS"/>
			</DerivedField>
			<DerivedField name="double(RAD)" optype="continuous" dataType="double">
				<FieldRef field="RAD"/>
			</DerivedField>
			<DerivedField name="double(INDUS)" optype="continuous" dataType="double">
				<FieldRef field="INDUS"/>
			</DerivedField>
			<DerivedField name="double(ZN)" optype="continuous" dataType="double">
				<FieldRef field="ZN"/>
			</DerivedField>
		</LocalTransformations>
		<Segmentation multipleModelMethod="average">
			<Segment id="1">
				<True/>
				<TreeModel functionName="regression" missingValueStrategy="nullPrediction" noTrueChildStrategy="returnLastPrediction">
					<MiningSchema>
						<MiningField name="double(RM)"/>
						<MiningField name="double(CRIM)"/>
						<MiningField name="double(AGE)"/>
						<MiningField name="double(NOX)"/>
						<MiningField name="double(PTRATIO)"/>
						<MiningField name="double(DIS)"/>
						<MiningField name="double(RAD)"/>
						<MiningField name="double(INDUS)"/>
						<MiningField name="double(ZN)"/>
					</MiningSchema>
					<Node score="21.9">
						<True/>
						<Node score="27.5">
							<SimplePredicate field="double(RM)" operator="lessOrEqual" value="6.980999946594238"/>
							<Node score="16.7">
								<SimplePredicate field="double(CRIM)" operator="lessOrEqual" value="4.994194984436035"/>
								<Node score="50.0">
									<SimplePredicate field="double(RM)" operator="lessOrEqual" value="6.1524999141693115"/>
									<Node score="27.5">
										<SimplePredicate field="double(CRIM)" operator="lessOrEqual" value="4.727045059204102"/>
										<Node score="15.6">
											<SimplePredicate field="double(CRIM)" operator="lessOrEqual" value="4.389130115509033"/>
											<Node score="20.4">
												<SimplePredicate field="double(AGE)" operator="lessOrEqual" value="68.39999771118164"/>
												<Node score="20.6">
													<SimplePredicate field="double(CRIM)" operator="lessOrEqual" value="0.06592000089585781"/>
													<Node score="21.9">
														<SimplePredicate field="double(NOX)" operator="lessOrEqual" value="0.40950000286102295"/>
														<Node score="20.9">
															<SimplePredicate field="double(CRIM)" operator="lessOrEqual" value="0.04183500073850155"/>
														</Node>
														<Node score="22.0">
															<SimplePredicate field="double(AGE)" operator="lessOrEqual" value="26.699999809265137"/>
														</Node>
													</Node>
													<Node score="18.7">
														<SimplePredicate field="double(RM)" operator="lessOrEqual" value="6.01449990272522"/>
														<Node score="17.5">
															<SimplePredicate field="double(PTRATIO)" operator="lessOrEqual" value="19.5"/>
															<Node score="17.2">
																<SimplePredicate field="double(RM)" operator="lessOrEqual" value="5.955999851226807"/>
																<Node score="17.1">
																	<SimplePredicate field="double(PTRATIO)" operator="lessOrEqual" value="17.84999942779541"/>
																</Node>
															</Node>
														</Node>
														<Node score="18.9">
															<SimplePredicate field="double(CRIM)" operator="lessOrEqual" value="0.03863999992609024"/>
															<Node score="19.5">
																<SimplePredicate field="double(DIS)" operator="lessOrEqual" value="6.275399923324585"/>
															</Node>
														</Node>
														<Node score="18.2">
															<SimplePredicate field="double(CRIM)" operator="lessOrEqual" value="0.05226000025868416"/>
														</Node>
													</Node>
													<Node score="22.5">
														<SimplePredicate field="double(RM)" operator="lessOrEqual" value="6.036999940872192"/>
													</Node>
												</Node>
												<Node score="19.9">
													<SimplePredicate field="double(RM)" operator="lessOrEqual" value="5.886499881744385"/>
													<Node score="16.1">
														<SimplePredicate field="double(RM)" operator="lessOrEqual" value="5.2144999504089355"/>
													</Node>
													<Node score="19.4">
														<SimplePredicate field="double(NOX)" operator="lessOrEqual" value="0.4560000002384186"/>
														<Node score="18.6">
															<SimplePredicate field="double(AGE)" operator="lessOrEqual" value="40.25"/>
														</Node>
													</Node>
													<Node score="21.1">
														<SimplePredicate field="double(PTRATIO)" operator="lessOrEqual" value="19.700000762939453"/>
														<Node score="21.8">
															<SimplePredicate field="double(RM)" operator="lessOrEqual" value="5.781499862670898"/>
														</Node>
													</Node>
													<Node score="20.2">
														<SimplePredicate field="double(NOX)" operator="lessOrEqual" value="0.5964999794960022"/>
													</Node>
												</Node>
												<Node score="22.9">
													<SimplePredicate field="double(CRIM)" operator="lessOrEqual" value="0.09103500097990036"/>
													<Node score="21.7">
														<SimplePredicate field="double(RM)" operator="lessOrEqual" value="6.010499954223633"/>
													</Node>
													<Node score="23.9">
														<SimplePredicate field="double(RAD)" operator="lessOrEqual" value="4.5"/>
													</Node>
													<Node score="23.2">
														<SimplePredicate field="double(INDUS)" operator="lessOrEqual" value="5.960000038146973"/>
													</Node>
												</Node>
												<Node score="23.100000000000005">
													<SimplePredicate field="double(DIS)" operator="lessOrEqual" value="4.603049993515015"/>
													<Node score="21.2">
														<SimplePredicate field="double(DIS)" operator="lessOrEqual" value="3.1461000442504883"/>
														<Node score="22.100000000000005">
															<SimplePredicate field="double(NOX)" operator="lessOrEqual" value="0.5645000040531158"/>
														</Node>
													</Node>
													<Node score="24.0">
														<SimplePredicate field="double(DIS)" operator="lessOrEqual" value="3.798650026321411"/>
													</Node>
													<Node score="22.6">
														<SimplePredicate field="double(NOX)" operator="lessOrEqual" value="0.513499990105629"/>
													</Node>
												</Node>
												<Node score="22.2">
													<SimplePredicate field="double(CRIM)" operator="lessOrEqual" value="0.2960849925875664"/>
													<Node score="21.2">
														<SimplePredicate field="double(RAD)" operator="lessOrEqual" value="4.5"/>
														<Node score="20.6">
															<SimplePredicate field="double(CRIM)" operator="lessOrEqual" value="0.1146400012075901"/>
														</Node>
													</Node>
													<Node score="21.7">
														<SimplePredicate field="double(PTRATIO)" operator="lessOrEqual" value="17.40000009536743"/>
													</Node>
												</Node>
												<Node score="20.4">
													<SimplePredicate field="double(RAD)" operator="lessOrEqual" value="4.5"/>
												</Node>
											</Node>
											<Node score="16.8">
												<SimplePredicate field="double(PTRATIO)" operator="lessOrEqual" value="20.949999809265137"/>
												<Node score="25.0">
													<SimplePredicate field="double(NOX)" operator="lessOrEqual" value="0.6895000040531158"/>
													<Node score="19.3">
														<SimplePredicate field="double(CRIM)" operator="lessOrEqual" value="2.6189500093460083"/>
														<Node score="24.3">
															<SimplePredicate field="double(DIS)" operator="lessOrEqual" value="1.7890999913215637"/>
														</Node>
														<Node score="17.3">
															<SimplePredicate field="double(DIS)" operator="lessOrEqual" value="1.9753499627113342"/>
															<Node score="15.2">
																<SimplePredicate field="double(AGE)" operator="lessOrEqual" value="94.8499984741211"/>
															</Node>
														</Node>
														<Node score="19.4">
															<SimplePredicate field="double(RAD)" operator="lessOrEqual" value="4.5"/>
															<Node score="18.8">
																<SimplePredicate field="double(RM)" operator="lessOrEqual" value="5.919500112533569"/>
																<Node score="19.8">
																	<SimplePredicate field="double(AGE)" operator="lessOrEqual" value="80.14999771118164"/>
																</Node>
																<Node score="19.3">
																	<SimplePredicate field="double(AGE)" operator="lessOrEqual" value="92.20000076293945"/>
																</Node>
															</Node>
															<Node score="21.7">
																<SimplePredicate field="double(RM)" operator="lessOrEqual" value="5.960500001907349"/>
															</Node>
															<Node score="20.1">
																<SimplePredicate field="double(RM)" operator="lessOrEqual" value="6.002999782562256"/>
																<Node score="20.3">
																	<SimplePredicate field="double(PTRATIO)" operator="lessOrEqual" value="19.600000381469727"/>
																	<Node score="20.5">
																		<SimplePredicate field="double(RAD)" operator="lessOrEqual" value="3.0"/>
																	</Node>
																</Node>
															</Node>
														</Node>
														<Node score="18.5">
															<SimplePredicate field="double(NOX)" operator="lessOrEqual" value="0.5064999908208847"/>
															<Node score="17.6">
																<SimplePredicate field="double(RM)" operator="lessOrEqual" value="5.598999977111816"/>
															</Node>
															<Node score="18.5">
																<SimplePredicate field="double(RAD)" operator="lessOrEqual" value="6.0"/>
															</Node>
														</Node>
														<Node score="19.1">
															<SimplePredicate field="double(PTRATIO)" operator="lessOrEqual" value="18.5"/>
															<Node score="18.7">
																<SimplePredicate field="double(CRIM)" operator="lessOrEqual" value="1.2680099979043007"/>
																<Node score="18.9">
																	<SimplePredicate field="double(PTRATIO)" operator="lessOrEqual" value="16.499999523162842"/>
																</Node>
															</Node>
														</Node>
														<Node score="19.5">
															<SimplePredicate field="double(RM)" operator="lessOrEqual" value="5.986500024795532"/>
															<Node score="19.7">
																<SimplePredicate field="double(PTRATIO)" operator="lessOrEqual" value="20.050000190734863"/>
															</Node>
														</Node>
													</Node>
												</Node>
												<Node score="15.6">
													<SimplePredicate field="double(DIS)" operator="lessOrEqual" value="1.7474499940872192"/>
													<Node score="14.6">
														<SimplePredicate field="double(DIS)" operator="lessOrEqual" value="1.488700032234192"/>
													</Node>
													<Node score="15.4">
														<SimplePredicate field="double(RM)" operator="lessOrEqual" value="5.612499952316284"/>
														<Node score="15.3">
															<SimplePredicate field="double(AGE)" operator="lessOrEqual" value="91.45000076293945"/>
														</Node>
													</Node>
												</Node>
												<Node score="17.0">
													<SimplePredicate field="double(PTRATIO)" operator="lessOrEqual" value="17.450000286102295"/>
												</Node>
											</Node>
											<Node score="15.6">
												<SimplePredicate field="double(CRIM)" operator="lessOrEqual" value="0.8666450083255768"/>
												<Node score="11.9">
													<SimplePredicate field="double(AGE)" operator="lessOrEqual" value="81.25"/>
												</Node>
												<Node score="19.6">
													<SimplePredicate field="double(DIS)" operator="lessOrEqual" value="4.328750133514404"/>
													<Node score="17.5">
														<SimplePredicate field="double(CRIM)" operator="lessOrEqual" value="0.818120002746582"/>
														<Node score="18.4">
															<SimplePredicate field="double(RM)" operator="lessOrEqual" value="5.9059998989105225"/>
														</Node>
														<Node score="17.8">
															<SimplePredicate field="double(DIS)" operator="lessOrEqual" value="2.963300108909607"/>
														</Node>
													</Node>
												</Node>
												<Node score="13.9">
													<SimplePredicate field="double(AGE)" operator="lessOrEqual" value="88.0"/>
												</Node>
												<Node score="16.6">
													<SimplePredicate field="double(RM)" operator="lessOrEqual" value="5.868499994277954"/>
												</Node>
											</Node>
											<Node score="13.2">
												<SimplePredicate field="double(NOX)" operator="lessOrEqual" value="0.5810000002384186"/>
												<Node score="13.1">
													<SimplePredicate field="double(DIS)" operator="lessOrEqual" value="3.888599991798401"/>
												</Node>
											</Node>
											<Node score="14.3">
												<SimplePredicate field="double(RM)" operator="lessOrEqual" value="5.697000026702881"/>
												<Node score="14.4">
													<SimplePredicate field="double(DIS)" operator="lessOrEqual" value="1.7096499800682068"/>
												</Node>
											</Node>
										</Node>
									</Node>
								</Node>
								<Node score="67.0">
									<SimplePredicate field="double(AGE)" operator="lessOrEqual" value="34.85000038146973"/>
									<Node score="28.5">
										<SimplePredicate field="double(CRIM)" operator="lessOrEqual" value="0.5405499786138535"/>
										<Node score="28.1">
											<SimplePredicate field="double(RM)" operator="lessOrEqual" value="6.579999923706055"/>
											<Node score="23.0">
												<SimplePredicate field="double(AGE)" operator="lessOrEqual" value="32.25"/>
												<Node score="24.399999999999995">
													<SimplePredicate field="double(PTRATIO)" operator="lessOrEqual" value="19.350000381469727"/>
													<Node score="23.2">
														<SimplePredicate field="double(RM)" operator="lessOrEqual" value="6.210000038146973"/>
													</Node>
													<Node score="23.5">
														<SimplePredicate field="double(PTRATIO)" operator="lessOrEqual" value="16.350000381469727"/>
													</Node>
													<Node score="25.0">
														<SimplePredicate field="double(DIS)" operator="lessOrEqual" value="7.356950044631958"/>
														<Node score="24.8">
															<SimplePredicate field="double(NOX)" operator="lessOrEqual" value="0.4449999928474426"/>
															<Node score="24.8">
																<SimplePredicate field="double(PTRATIO)" operator="lessOrEqual" value="17.800000190734863"/>
															</Node>
														</Node>
													</Node>
													<Node score="24.8">
														<SimplePredicate field="double(RM)" operator="lessOrEqual" value="6.462500095367432"/>
													</Node>
												</Node>
											</Node>
										</Node>
										<Node score="26.6">
											<SimplePredicate field="double(AGE)" operator="lessOrEqual" value="19.649999618530273"/>
											<Node score="26.2">
												<SimplePredicate field="double(RM)" operator="lessOrEqual" value="6.74399995803833"/>
											</Node>
										</Node>
										<Node score="30.5">
											<SimplePredicate field="double(INDUS)" operator="lessOrEqual" value="4.194999933242798"/>
											<Node score="30.8">
												<SimplePredicate field="double(CRIM)" operator="lessOrEqual" value="0.048369999043643475"/>
											</Node>
										</Node>
										<Node score="28.6">
											<SimplePredicate field="double(ZN)" operator="lessOrEqual" value="40.0"/>
										</Node>
									</Node>
								</Node>
								<Node score="22.3">
									<SimplePredicate field="double(PTRATIO)" operator="lessOrEqual" value="18.600000381469727"/>
									<Node score="41.3">
										<SimplePredicate field="double(DIS)" operator="lessOrEqual" value="1.9886499643325806"/>
									</Node>
									<Node score="26.7">
										<SimplePredicate field="double(NOX)" operator="lessOrEqual" value="0.5309999883174896"/>
										<Node score="28.4">
											<SimplePredicate field="double(AGE)" operator="lessOrEqual" value="67.45000076293945"/>
											<Node score="22.9">
												<SimplePredicate field="double(RM)" operator="lessOrEqual" value="6.601999998092651"/>
												<Node score="27.1">
													<SimplePredicate field="double(PTRATIO)" operator="lessOrEqual" value="16.649999618530273"/>
												</Node>
												<Node score="24.7">
													<SimplePredicate field="double(AGE)" operator="lessOrEqual" value="50.79999923706055"/>
													<Node score="24.1">
														<SimplePredicate field="double(ZN)" operator="lessOrEqual" value="72.5"/>
														<Node score="23.9">
															<SimplePredicate field="double(RAD)" operator="lessOrEqual" value="3.5"/>
														</Node>
													</Node>
												</Node>
												<Node score="22.6">
													<SimplePredicate field="double(ZN)" operator="lessOrEqual" value="14.0"/>
												</Node>
											</Node>
											<Node score="31.6">
												<SimplePredicate field="double(AGE)" operator="lessOrEqual" value="49.14999961853027"/>
											</Node>
										</Node>
										<Node score="29.6">
											<SimplePredicate field="double(INDUS)" operator="lessOrEqual" value="4.329999923706055"/>
											<Node score="28.2">
												<SimplePredicate field="double(DIS)" operator="lessOrEqual" value="3.2311999797821045"/>
											</Node>
										</Node>
										<Node score="27.1">
											<SimplePredicate field="double(RAD)" operator="lessOrEqual" value="6.5"/>
										</Node>
									</Node>
									<Node score="23.0">
										<SimplePredicate field="double(CRIM)" operator="lessOrEqual" value="2.374964952468872"/>
										<Node score="23.8">
											<SimplePredicate field="double(PTRATIO)" operator="lessOrEqual" value="15.849999904632568"/>
											<Node score="24.0">
												<SimplePredicate field="double(CRIM)" operator="lessOrEqual" value="1.153360009426251"/>
											</Node>
										</Node>
										<Node score="22.8">
											<SimplePredicate field="double(NOX)" operator="lessOrEqual" value="0.5470000207424164"/>
										</Node>
									</Node>
								</Node>
								<Node score="12.0">
									<SimplePredicate field="double(DIS)" operator="lessOrEqual" value="2.1082500219345093"/>
									<Node score="17.1">
										<SimplePredicate field="double(DIS)" operator="lessOrEqual" value="1.973900020122528"/>
									</Node>
								</Node>
								<Node score="27.5">
									<SimplePredicate field="double(AGE)" operator="lessOrEqual" value="90.0"/>
									<Node score="22.0">
										<SimplePredicate field="double(CRIM)" operator="lessOrEqual" value="0.129465002566576"/>
										<Node score="23.9">
											<SimplePredicate field="double(NOX)" operator="lessOrEqual" value="0.43150000274181366"/>
											<Node score="22.9">
												<SimplePredicate field="double(CRIM)" operator="lessOrEqual" value="0.04006499983370304"/>
											</Node>
										</Node>
										<Node score="20.7">
											<SimplePredicate field="double(AGE)" operator="lessOrEqual" value="41.75"/>
										</Node>
										<Node score="21.4">
											<SimplePredicate field="double(AGE)" operator="lessOrEqual" value="61.10000228881836"/>
											<Node score="21.7">
												<SimplePredicate field="double(DIS)" operator="lessOrEqual" value="3.640200138092041"/>
											</Node>
										</Node>
										<Node score="22.4">
											<SimplePredicate field="double(CRIM)" operator="lessOrEqual" value="0.08610999956727028"/>
										</Node>
										<Node score="22.2">
											<SimplePredicate field="double(INDUS)" operator="lessOrEqual" value="8.53000020980835"/>
										</Node>
									</Node>
									<Node score="23.2">
										<SimplePredicate field="double(RM)" operator="lessOrEqual" value="6.582000017166138"/>
										<Node score="23.1">
											<SimplePredicate field="double(NOX)" operator="lessOrEqual" value="0.5364999920129776"/>
										</Node>
									</Node>
								</Node>
								<Node score="23.0">
									<SimplePredicate field="double(RM)" operator="lessOrEqual" value="6.4710001945495605"/>
									<Node score="19.2">
										<SimplePredicate field="double(DIS)" operator="lessOrEqual" value="2.299199938774109"/>
										<Node score="19.6">
											<SimplePredicate field="double(RM)" operator="lessOrEqual" value="6.392000198364258"/>
										</Node>
									</Node>
									<Node score="19.6">
										<SimplePredicate field="double(AGE)" operator="lessOrEqual" value="94.54999923706055"/>
										<Node score="19.4">
											<SimplePredicate field="double(INDUS)" operator="lessOrEqual" value="13.330000400543213"/>
										</Node>
									</Node>
								</Node>
							</Node>
							<Node score="5.0">
								<SimplePredicate field="double(RM)" operator="lessOrEqual" value="6.838000059127808"/>
								<Node score="11.7">
									<SimplePredicate field="double(CRIM)" operator="lessOrEqual" value="15.574150085449219"/>
									<Node score="21.4">
										<SimplePredicate field="double(AGE)" operator="lessOrEqual" value="70.10000228881836"/>
										<Node score="20.1">
											<SimplePredicate field="double(DIS)" operator="lessOrEqual" value="2.893549919128418"/>
										</Node>
									</Node>
									<Node score="23.1">
										<SimplePredicate field="double(RM)" operator="lessOrEqual" value="4.384500026702881"/>
									</Node>
									<Node score="9.6">
										<SimplePredicate field="double(DIS)" operator="lessOrEqual" value="2.1476000547409058"/>
										<Node score="12.3">
											<SimplePredicate field="double(DIS)" operator="lessOrEqual" value="1.7926000356674194"/>
											<Node score="13.3">
												<SimplePredicate field="double(NOX)" operator="lessOrEqual" value="0.6965000033378601"/>
												<Node score="13.9">
													<SimplePredicate field="double(RM)" operator="lessOrEqual" value="6.7215001583099365"/>
													<Node score="13.8">
														<SimplePredicate field="double(RM)" operator="lessOrEqual" value="6.421000003814697"/>
													</Node>
												</Node>
											</Node>
										</Node>
										<Node score="8.7">
											<SimplePredicate field="double(DIS)" operator="lessOrEqual" value="1.9732999801635742"/>
											<Node score="9.5">
												<SimplePredicate field="double(CRIM)" operator="lessOrEqual" value="11.449850082397461"/>
												<Node score="16.7">
													<SimplePredicate field="double(DIS)" operator="lessOrEqual" value="1.9051000475883484"/>
													<Node score="14.2">
														<SimplePredicate field="double(CRIM)" operator="lessOrEqual" value="10.239015102386475"/>
														<Node score="12.8">
															<SimplePredicate field="double(AGE)" operator="lessOrEqual" value="94.60000228881836"/>
														</Node>
													</Node>
												</Node>
												<Node score="11.0">
													<SimplePredicate field="double(DIS)" operator="lessOrEqual" value="1.9519000053405762"/>
												</Node>
											</Node>
											<Node score="8.4">
												<SimplePredicate field="double(AGE)" operator="lessOrEqual" value="93.95000076293945"/>
											</Node>
										</Node>
										<Node score="13.4">
											<SimplePredicate field="double(CRIM)" operator="lessOrEqual" value="12.790600299835205"/>
											<Node score="15.4">
												<SimplePredicate field="double(DIS)" operator="lessOrEqual" value="2.000100016593933"/>
											</Node>
										</Node>
										<Node score="12.0">
											<SimplePredicate field="double(NOX)" operator="lessOrEqual" value="0.6770000159740448"/>
										</Node>
									</Node>
									<Node score="14.1">
										<SimplePredicate field="double(CRIM)" operator="lessOrEqual" value="12.07319974899292"/>
										<Node score="14.9">
											<SimplePredicate field="double(AGE)" operator="lessOrEqual" value="98.25"/>
											<Node score="13.3">
												<SimplePredicate field="double(RM)" operator="lessOrEqual" value="6.240999937057495"/>
												<Node score="14.6">
													<SimplePredicate field="double(AGE)" operator="lessOrEqual" value="97.04999923706055"/>
												</Node>
											</Node>
											<Node score="16.1">
												<SimplePredicate field="double(DIS)" operator="lessOrEqual" value="2.2778000831604004"/>
											</Node>
											<Node score="16.1">
												<SimplePredicate field="double(CRIM)" operator="lessOrEqual" value="5.265655040740967"/>
											</Node>
											<Node score="15.2">
												<SimplePredicate field="double(DIS)" operator="lessOrEqual" value="2.569149971008301"/>
											</Node>
										</Node>
										<Node score="13.0">
											<SimplePredicate field="double(DIS)" operator="lessOrEqual" value="2.223299980163574"/>
										</Node>
									</Node>
								</Node>
								<Node score="10.5">
									<SimplePredicate field="double(CRIM)" operator="lessOrEqual" value="46.361249923706055"/>
									<Node score="7.2">
										<SimplePredicate field="double(NOX)" operator="lessOrEqual" value="0.7199999988079071"/>
										<Node score="10.2">
											<SimplePredicate field="double(DIS)" operator="lessOrEqual" value="1.4128000140190125"/>
										</Node>
										<Node score="8.3">
											<SimplePredicate field="double(AGE)" operator="lessOrEqual" value="98.0"/>
											<Node score="8.8">
												<SimplePredicate field="double(DIS)" operator="lessOrEqual" value="1.571150004863739"/>
											</Node>
											<Node score="8.3">
												<SimplePredicate field="double(CRIM)" operator="lessOrEqual" value="20.331000328063965"/>
											</Node>
										</Node>
									</Node>
								</Node>
							</Node>
						</Node>
						<Node score="33.2">
							<SimplePredicate field="double(RM)" operator="lessOrEqual" value="7.426500082015991"/>
							<Node score="33.1">
								<SimplePredicate field="double(RM)" operator="lessOrEqual" value="7.093999862670898"/>
								<Node score="30.7">
									<SimplePredicate field="double(INDUS)" operator="lessOrEqual" value="5.03000009059906"/>
									<Node score="29.0">
										<SimplePredicate field="double(CRIM)" operator="lessOrEqual" value="0.4206550121307373"/>
									</Node>
								</Node>
							</Node>
							<Node score="37.3">
								<SimplePredicate field="double(RM)" operator="lessOrEqual" value="7.258000135421753"/>
								<Node score="36.5">
									<SimplePredicate field="double(PTRATIO)" operator="lessOrEqual" value="18.950000762939453"/>
									<Node score="33.8">
										<SimplePredicate field="double(AGE)" operator="lessOrEqual" value="86.70000076293945"/>
										<Node score="35.4">
											<SimplePredicate field="double(INDUS)" operator="lessOrEqual" value="3.7050000429153442"/>
											<Node score="36.4">
												<SimplePredicate field="double(DIS)" operator="lessOrEqual" value="7.588200092315674"/>
												<Node score="36.1">
													<SimplePredicate field="double(DIS)" operator="lessOrEqual" value="6.271000146865845"/>
													<Node score="36.2">
														<SimplePredicate field="double(NOX)" operator="lessOrEqual" value="0.4650000035762787"/>
													</Node>
												</Node>
											</Node>
										</Node>
									</Node>
								</Node>
							</Node>
							<Node score="36.0">
								<SimplePredicate field="double(DIS)" operator="lessOrEqual" value="3.3409000039100647"/>
							</Node>
							<Node score="33.3">
								<SimplePredicate field="double(AGE)" operator="lessOrEqual" value="41.54999923706055"/>
							</Node>
						</Node>
						<Node score="50.0">
							<SimplePredicate field="double(NOX)" operator="lessOrEqual" value="0.6825000047683716"/>
							<Node score="42.8">
								<SimplePredicate field="double(AGE)" operator="lessOrEqual" value="20.249999523162842"/>
								<Node score="42.3">
									<SimplePredicate field="double(NOX)" operator="lessOrEqual" value="0.4229999929666519"/>
								</Node>
							</Node>
							<Node score="43.1">
								<SimplePredicate field="double(RM)" operator="lessOrEqual" value="7.66100001335144"/>
							</Node>
							<Node score="44.8">
								<SimplePredicate field="double(CRIM)" operator="lessOrEqual" value="0.4291999936103821"/>
								<Node score="48.3">
									<SimplePredicate field="double(AGE)" operator="lessOrEqual" value="74.35000228881836"/>
									<Node score="50.0">
										<SimplePredicate field="double(PTRATIO)" operator="lessOrEqual" value="15.5"/>
									</Node>
								</Node>
							</Node>
						</Node>
					</Node>
				</TreeModel>
			</Segment>
			<Segment id="2">
				<True/>
				<TreeModel functionName="regression" missingValueStrategy="nullPrediction" noTrueChildStrategy="returnLastPrediction">
					<MiningSchema>
						<MiningField name="double(RM)"/>
						<MiningField name="double(CRIM)"/>
						<MiningField name="double(AGE)"/>
						<MiningField name="double(NOX)"/>
						<MiningField name="double(PTRATIO)"/>
						<MiningField name="double(DIS)"/>
						<MiningField name="double(RAD)"/>
						<MiningField name="double(INDUS)"/>
						<MiningField name="double(ZN)"/>
					</MiningSchema>
					<Node score="42.8">
						<True/>
						<Node score="12.0">
							<SimplePredicate field="double(RM)" operator="lessOrEqual" value="6.980999946594238"/>
							<Node score="8.7">
								<SimplePredicate field="double(PTRATIO)" operator="lessOrEqual" value="22.5"/>
								<Node score="23.9">
									<SimplePredicate field="double(CRIM)" operator="lessOrEqual" value="6.054610013961792"/>
									<Node score="23.0">
										<SimplePredicate field="double(RM)" operator="lessOrEqual" value="6.5309998989105225"/>
										<Node score="50.0">
											<SimplePredicate field="double(RM)" operator="lessOrEqual" value="4.990999937057495"/>
											<Node score="27.5">
												<SimplePredicate field="double(CRIM)" operator="lessOrEqual" value="4.727045059204102"/>
											</Node>
										</Node>
										<Node score="13.1">
											<SimplePredicate field="double(RM)" operator="lessOrEqual" value="5.706499814987183"/>
											<Node score="20.2">
												<SimplePredicate field="double(AGE)" operator="lessOrEqual" value="81.0999984741211"/>
												<Node score="17.1">
													<SimplePredicate field="double(NOX)" operator="lessOrEqual" value="0.48794999718666077"/>
													<Node score="18.2">
														<SimplePredicate field="double(AGE)" operator="lessOrEqual" value="25.149999618530273"/>
													</Node>
													<Node score="17.4">
														<SimplePredicate field="double(RM)" operator="lessOrEqual" value="5.6499998569488525"/>
														<Node score="17.6">
															<SimplePredicate field="double(RM)" operator="lessOrEqual" value="5.5934998989105225"/>
														</Node>
													</Node>
												</Node>
											</Node>
											<Node score="14.3">
												<SimplePredicate field="double(AGE)" operator="lessOrEqual" value="94.95000076293945"/>
												<Node score="15.199999999999998">
													<SimplePredicate field="double(RM)" operator="lessOrEqual" value="5.5980000495910645"/>
													<Node score="15.3">
														<SimplePredicate field="double(INDUS)" operator="lessOrEqual" value="23.65999984741211"/>
														<Node score="15.4">
															<SimplePredicate field="double(DIS)" operator="lessOrEqual" value="1.5679500102996826"/>
														</Node>
													</Node>
												</Node>
												<Node score="13.9">
													<SimplePredicate field="double(NOX)" operator="lessOrEqual" value="0.5810000002384186"/>
												</Node>
											</Node>
											<Node score="8.1">
												<SimplePredicate field="double(RM)" operator="lessOrEqual" value="5.247999906539917"/>
											</Node>
											<Node score="13.4">
												<SimplePredicate field="double(RM)" operator="lessOrEqual" value="5.598999977111816"/>
												<Node score="13.6">
													<SimplePredicate field="double(NOX)" operator="lessOrEqual" value="0.7044999897480011"/>
												</Node>
											</Node>
											<Node score="15.6">
												<SimplePredicate field="double(DIS)" operator="lessOrEqual" value="2.651899993419647"/>
											</Node>
										</Node>
										<Node score="29.1">
											<SimplePredicate field="double(AGE)" operator="lessOrEqual" value="70.14999771118164"/>
											<Node score="21.2">
												<SimplePredicate field="double(RM)" operator="lessOrEqual" value="6.366499900817871"/>
												<Node score="19.7">
													<SimplePredicate field="double(RM)" operator="lessOrEqual" value="5.9644999504089355"/>
													<Node score="19.9">
														<SimplePredicate field="double(DIS)" operator="lessOrEqual" value="6.132800102233887"/>
														<Node score="21.7">
															<SimplePredicate field="double(PTRATIO)" operator="lessOrEqual" value="18.65000057220459"/>
															<Node score="23.3">
																<SimplePredicate field="double(ZN)" operator="lessOrEqual" value="6.25"/>
																<Node score="22.6">
																	<SimplePredicate field="double(INDUS)" operator="lessOrEqual" value="12.240000247955322"/>
																</Node>
															</Node>
														</Node>
														<Node score="19.5">
															<SimplePredicate field="double(CRIM)" operator="lessOrEqual" value="0.05162999965250492"/>
														</Node>
														<Node score="20.3">
															<SimplePredicate field="double(PTRATIO)" operator="lessOrEqual" value="18.90000057220459"/>
														</Node>
														<Node score="21.8">
															<SimplePredicate field="double(NOX)" operator="lessOrEqual" value="0.6199999749660492"/>
															<Node score="20.4">
																<SimplePredicate field="double(INDUS)" operator="lessOrEqual" value="8.914999961853027"/>
																<Node score="21.0">
																	<SimplePredicate field="double(INDUS)" operator="lessOrEqual" value="7.050000190734863"/>
																</Node>
															</Node>
															<Node score="22.0">
																<SimplePredicate field="double(CRIM)" operator="lessOrEqual" value="0.11387499794363976"/>
															</Node>
															<Node score="21.7">
																<SimplePredicate field="double(NOX)" operator="lessOrEqual" value="0.4724999964237213"/>
															</Node>
															<Node score="21.8">
																<SimplePredicate field="double(INDUS)" operator="lessOrEqual" value="13.894999980926514"/>
															</Node>
														</Node>
													</Node>
													<Node score="17.2">
														<SimplePredicate field="double(CRIM)" operator="lessOrEqual" value="0.08058499917387962"/>
														<Node score="18.6">
															<SimplePredicate field="double(PTRATIO)" operator="lessOrEqual" value="18.549999237060547"/>
														</Node>
													</Node>
													<Node score="20.6">
														<SimplePredicate field="double(AGE)" operator="lessOrEqual" value="32.60000038146973"/>
													</Node>
												</Node>
												<Node score="20.6">
													<SimplePredicate field="double(CRIM)" operator="lessOrEqual" value="0.034450000151991844"/>
													<Node score="17.5">
														<SimplePredicate field="double(PTRATIO)" operator="lessOrEqual" value="19.5"/>
													</Node>
												</Node>
												<Node score="23.0">
													<SimplePredicate field="double(AGE)" operator="lessOrEqual" value="38.60000038146973"/>
													<Node score="21.9">
														<SimplePredicate field="double(NOX)" operator="lessOrEqual" value="0.39499999582767487"/>
													</Node>
													<Node score="24.3">
														<SimplePredicate field="double(RM)" operator="lessOrEqual" value="6.117499828338623"/>
														<Node score="24.7">
															<SimplePredicate field="double(RM)" operator="lessOrEqual" value="6.036999940872192"/>
														</Node>
													</Node>
													<Node score="23.9">
														<SimplePredicate field="double(PTRATIO)" operator="lessOrEqual" value="16.050000190734863"/>
													</Node>
													<Node score="23.5">
														<SimplePredicate field="double(CRIM)" operator="lessOrEqual" value="0.24942999333143234"/>
														<Node score="23.4">
															<SimplePredicate field="double(DIS)" operator="lessOrEqual" value="5.949399948120117"/>
														</Node>
													</Node>
												</Node>
												<Node score="21.4">
													<SimplePredicate field="double(NOX)" operator="lessOrEqual" value="0.5000000149011612"/>
													<Node score="20.5">
														<SimplePredicate field="double(CRIM)" operator="lessOrEqual" value="0.044634999707341194"/>
													</Node>
													<Node score="22.2">
														<SimplePredicate field="double(INDUS)" operator="lessOrEqual" value="10.105000019073486"/>
														<Node score="22.3">
															<SimplePredicate field="double(CRIM)" operator="lessOrEqual" value="0.07439999841153622"/>
														</Node>
													</Node>
													<Node score="21.7">
														<SimplePredicate field="double(RAD)" operator="lessOrEqual" value="4.5"/>
													</Node>
												</Node>
												<Node score="24.0">
													<SimplePredicate field="double(NOX)" operator="lessOrEqual" value="0.5340000092983246"/>
													<Node score="22.9">
														<SimplePredicate field="double(RAD)" operator="lessOrEqual" value="6.5"/>
														<Node score="23.2">
															<SimplePredicate field="double(NOX)" operator="lessOrEqual" value="0.5169999897480011"/>
														</Node>
													</Node>
												</Node>
												<Node score="22.1">
													<SimplePredicate field="double(NOX)" operator="lessOrEqual" value="0.5645000040531158"/>
												</Node>
											</Node>
											<Node score="28.1">
												<SimplePredicate field="double(RM)" operator="lessOrEqual" value="6.375499963760376"/>
											</Node>
											<Node score="24.7">
												<SimplePredicate field="double(RM)" operator="lessOrEqual" value="6.4674999713897705"/>
												<Node score="23.1">
													<SimplePredicate field="double(DIS)" operator="lessOrEqual" value="7.351999998092651"/>
													<Node score="22.9">
														<SimplePredicate field="double(PTRATIO)" operator="lessOrEqual" value="18.350000381469727"/>
														<Node score="22.0">
															<SimplePredicate field="double(RAD)" operator="lessOrEqual" value="1.5"/>
														</Node>
														<Node score="22.600000000000005">
															<SimplePredicate field="double(PTRATIO)" operator="lessOrEqual" value="18.0"/>
														</Node>
													</Node>
													<Node score="24.2">
														<SimplePredicate field="double(CRIM)" operator="lessOrEqual" value="0.17459500581026077"/>
														<Node score="23.8">
															<SimplePredicate field="double(INDUS)" operator="lessOrEqual" value="9.095000267028809"/>
															<Node score="23.9">
																<SimplePredicate field="double(PTRATIO)" operator="lessOrEqual" value="19.050000190734863"/>
															</Node>
														</Node>
													</Node>
												</Node>
												<Node score="24.8">
													<SimplePredicate field="double(DIS)" operator="lessOrEqual" value="8.292150020599365"/>
												</Node>
											</Node>
											<Node score="22.9">
												<SimplePredicate field="double(INDUS)" operator="lessOrEqual" value="5.9750001430511475"/>
												<Node score="24.4">
													<SimplePredicate field="double(DIS)" operator="lessOrEqual" value="8.09439992904663"/>
												</Node>
											</Node>
											<Node score="26.4">
												<SimplePredicate field="double(AGE)" operator="lessOrEqual" value="25.249999046325684"/>
											</Node>
										</Node>
										<Node score="13.2">
											<SimplePredicate field="double(AGE)" operator="lessOrEqual" value="96.04999923706055"/>
											<Node score="19.1">
												<SimplePredicate field="double(PTRATIO)" operator="lessOrEqual" value="20.949999809265137"/>
												<Node score="15.6">
													<SimplePredicate field="double(DIS)" operator="lessOrEqual" value="1.9488000273704529"/>
													<Node score="17.0">
														<SimplePredicate field="double(RM)" operator="lessOrEqual" value="6.140500068664551"/>
														<Node score="16.8">
															<SimplePredicate field="double(RM)" operator="lessOrEqual" value="5.966000080108643"/>
														</Node>
													</Node>
												</Node>
												<Node score="18.3">
													<SimplePredicate field="double(INDUS)" operator="lessOrEqual" value="10.300000190734863"/>
													<Node score="21.6">
														<SimplePredicate field="double(INDUS)" operator="lessOrEqual" value="7.2250001430511475"/>
														<Node score="21.7">
															<SimplePredicate field="double(DIS)" operator="lessOrEqual" value="4.007550120353699"/>
														</Node>
													</Node>
													<Node score="20.3">
														<SimplePredicate field="double(RAD)" operator="lessOrEqual" value="4.5"/>
														<Node score="19.4">
															<SimplePredicate field="double(CRIM)" operator="lessOrEqual" value="0.30554500222206116"/>
															<Node score="19.8">
																<SimplePredicate field="double(RM)" operator="lessOrEqual" value="5.9024999141693115"/>
															</Node>
														</Node>
													</Node>
													<Node score="18.7">
														<SimplePredicate field="double(NOX)" operator="lessOrEqual" value="0.5659999847412109"/>
														<Node score="18.3">
															<SimplePredicate field="double(RM)" operator="lessOrEqual" value="5.966000080108643"/>
															<Node score="18.5">
																<SimplePredicate field="double(RAD)" operator="lessOrEqual" value="5.5"/>
															</Node>
														</Node>
														<Node score="18.9">
															<SimplePredicate field="double(CRIM)" operator="lessOrEqual" value="0.21686500310897827"/>
															<Node score="19.3">
																<SimplePredicate field="double(DIS)" operator="lessOrEqual" value="4.669750094413757"/>
																<Node score="19.2">
																	<SimplePredicate field="double(PTRATIO)" operator="lessOrEqual" value="19.34999942779541"/>
																</Node>
															</Node>
														</Node>
														<Node score="18.6">
															<SimplePredicate field="double(AGE)" operator="lessOrEqual" value="90.4000015258789"/>
														</Node>
													</Node>
													<Node score="16.8">
														<SimplePredicate field="double(CRIM)" operator="lessOrEqual" value="0.22308149188756943"/>
													</Node>
												</Node>
												<Node score="23.0">
													<SimplePredicate field="double(PTRATIO)" operator="lessOrEqual" value="18.850000381469727"/>
													<Node score="21.7">
														<SimplePredicate field="double(NOX)" operator="lessOrEqual" value="0.5195000022649765"/>
														<Node score="22.5">
															<SimplePredicate field="double(RM)" operator="lessOrEqual" value="5.871500015258789"/>
														</Node>
													</Node>
													<Node score="22.3">
														<SimplePredicate field="double(DIS)" operator="lessOrEqual" value="2.3422499895095825"/>
													</Node>
													<Node score="22.7">
														<SimplePredicate field="double(RM)" operator="lessOrEqual" value="6.113500118255615"/>
													</Node>
												</Node>
												<Node score="22.6">
													<SimplePredicate field="double(AGE)" operator="lessOrEqual" value="89.1500015258789"/>
													<Node score="21.4">
														<SimplePredicate field="double(DIS)" operator="lessOrEqual" value="2.2509999871253967"/>
													</Node>
													<Node score="23.2">
														<SimplePredicate field="double(CRIM)" operator="lessOrEqual" value="3.9149950742721558"/>
													</Node>
												</Node>
												<Node score="19.6">
													<SimplePredicate field="double(AGE)" operator="lessOrEqual" value="93.70000076293945"/>
													<Node score="19.9">
														<SimplePredicate field="double(DIS)" operator="lessOrEqual" value="2.9504499435424805"/>
														<Node score="20.5">
															<SimplePredicate field="double(RM)" operator="lessOrEqual" value="6.105999946594238"/>
														</Node>
														<Node score="20.2">
															<SimplePredicate field="double(NOX)" operator="lessOrEqual" value="0.7414999902248383"/>
														</Node>
													</Node>
												</Node>
												<Node score="18.8">
													<SimplePredicate field="double(PTRATIO)" operator="lessOrEqual" value="19.65000057220459"/>
												</Node>
											</Node>
											<Node score="17.5">
												<SimplePredicate field="double(AGE)" operator="lessOrEqual" value="81.8499984741211"/>
											</Node>
											<Node score="15.6">
												<SimplePredicate field="double(CRIM)" operator="lessOrEqual" value="1.310230016708374"/>
												<Node score="15.2">
													<SimplePredicate field="double(AGE)" operator="lessOrEqual" value="92.89999771118164"/>
												</Node>
											</Node>
										</Node>
										<Node score="23.3">
											<SimplePredicate field="double(INDUS)" operator="lessOrEqual" value="20.734999656677246"/>
											<Node score="27.1">
												<SimplePredicate field="double(AGE)" operator="lessOrEqual" value="98.04999923706055"/>
											</Node>
											<Node score="24.3">
												<SimplePredicate field="double(CRIM)" operator="lessOrEqual" value="1.383929967880249"/>
											</Node>
										</Node>
										<Node score="17.1">
											<SimplePredicate field="double(DIS)" operator="lessOrEqual" value="2.299199938774109"/>
											<Node score="19.6">
												<SimplePredicate field="double(AGE)" operator="lessOrEqual" value="97.79999923706055"/>
											</Node>
											<Node score="17.8">
												<SimplePredicate field="double(RM)" operator="lessOrEqual" value="6.302500009536743"/>
											</Node>
										</Node>
									</Node>
									<Node score="29.6">
										<SimplePredicate field="double(INDUS)" operator="lessOrEqual" value="6.659999847412109"/>
										<Node score="23.9">
											<SimplePredicate field="double(CRIM)" operator="lessOrEqual" value="0.028464999981224537"/>
										</Node>
										<Node score="35.1">
											<SimplePredicate field="double(PTRATIO)" operator="lessOrEqual" value="15.049999713897705"/>
										</Node>
										<Node score="34.9">
											<SimplePredicate field="double(INDUS)" operator="lessOrEqual" value="1.8250000476837158"/>
										</Node>
										<Node score="24.8">
											<SimplePredicate field="double(NOX)" operator="lessOrEqual" value="0.40800000727176666"/>
										</Node>
										<Node score="29.0">
											<SimplePredicate field="double(PTRATIO)" operator="lessOrEqual" value="17.800000190734863"/>
											<Node score="32.4">
												<SimplePredicate field="double(AGE)" operator="lessOrEqual" value="49.70000076293945"/>
												<Node score="30.5">
													<SimplePredicate field="double(INDUS)" operator="lessOrEqual" value="4.819999933242798"/>
												</Node>
												<Node score="31.5">
													<SimplePredicate field="double(DIS)" operator="lessOrEqual" value="3.726349949836731"/>
												</Node>
											</Node>
											<Node score="30.1">
												<SimplePredicate field="double(RM)" operator="lessOrEqual" value="6.671999931335449"/>
											</Node>
										</Node>
										<Node score="28.2">
											<SimplePredicate field="double(DIS)" operator="lessOrEqual" value="7.01170015335083"/>
											<Node score="28.5">
												<SimplePredicate field="double(NOX)" operator="lessOrEqual" value="0.4584999978542328"/>
												<Node score="28.4">
													<SimplePredicate field="double(ZN)" operator="lessOrEqual" value="40.0"/>
												</Node>
											</Node>
										</Node>
									</Node>
									<Node score="28.7">
										<SimplePredicate field="double(PTRATIO)" operator="lessOrEqual" value="18.149999618530273"/>
										<Node score="26.6">
											<SimplePredicate field="double(RAD)" operator="lessOrEqual" value="4.5"/>
											<Node score="27.1">
												<SimplePredicate field="double(PTRATIO)" operator="lessOrEqual" value="16.949999809265137"/>
											</Node>
										</Node>
									</Node>
									<Node score="22.4">
										<SimplePredicate field="double(AGE)" operator="lessOrEqual" value="86.75"/>
										<Node score="22.8">
											<SimplePredicate field="double(INDUS)" operator="lessOrEqual" value="10.914999961853027"/>
										</Node>
									</Node>
								</Node>
								<Node score="15.0">
									<SimplePredicate field="double(NOX)" operator="lessOrEqual" value="0.6550000011920929"/>
									<Node score="17.2">
										<SimplePredicate field="double(CRIM)" operator="lessOrEqual" value="11.140599727630615"/>
										<Node score="16.1">
											<SimplePredicate field="double(AGE)" operator="lessOrEqual" value="97.6500015258789"/>
											<Node score="14.6">
												<SimplePredicate field="double(RM)" operator="lessOrEqual" value="6.386500120162964"/>
												<Node score="13.3">
													<SimplePredicate field="double(RM)" operator="lessOrEqual" value="6.173500061035156"/>
													<Node score="13.8">
														<SimplePredicate field="double(RM)" operator="lessOrEqual" value="5.765000104904175"/>
													</Node>
													<Node score="13.4">
														<SimplePredicate field="double(DIS)" operator="lessOrEqual" value="2.113900065422058"/>
													</Node>
												</Node>
												<Node score="14.5">
													<SimplePredicate field="double(AGE)" operator="lessOrEqual" value="91.39999771118164"/>
												</Node>
											</Node>
										</Node>
									</Node>
									<Node score="19.1">
										<SimplePredicate field="double(CRIM)" operator="lessOrEqual" value="33.35574960708618"/>
										<Node score="27.5">
											<SimplePredicate field="double(DIS)" operator="lessOrEqual" value="1.4880499839782715"/>
										</Node>
										<Node score="23.1">
											<SimplePredicate field="double(DIS)" operator="lessOrEqual" value="1.73089998960495"/>
										</Node>
										<Node score="20.1">
											<SimplePredicate field="double(CRIM)" operator="lessOrEqual" value="14.32539987564087"/>
											<Node score="20.8">
												<SimplePredicate field="double(CRIM)" operator="lessOrEqual" value="12.561649799346924"/>
											</Node>
										</Node>
									</Node>
								</Node>
								<Node score="15.4">
									<SimplePredicate field="double(CRIM)" operator="lessOrEqual" value="11.944850444793701"/>
									<Node score="9.5">
										<SimplePredicate field="double(NOX)" operator="lessOrEqual" value="0.7064999938011169"/>
										<Node score="12.3">
											<SimplePredicate field="double(CRIM)" operator="lessOrEqual" value="8.665684938430786"/>
										</Node>
									</Node>
									<Node score="19.5">
										<SimplePredicate field="double(AGE)" operator="lessOrEqual" value="83.3499984741211"/>
									</Node>
									<Node score="14.9">
										<SimplePredicate field="double(AGE)" operator="lessOrEqual" value="96.79999923706055"/>
										<Node score="14.9">
											<SimplePredicate field="double(AGE)" operator="lessOrEqual" value="90.04999923706055"/>
										</Node>
									</Node>
									<Node score="16.7">
										<SimplePredicate field="double(RM)" operator="lessOrEqual" value="6.447999954223633"/>
										<Node score="17.1">
											<SimplePredicate field="double(CRIM)" operator="lessOrEqual" value="10.405790328979492"/>
										</Node>
									</Node>
								</Node>
								<Node score="10.8">
									<SimplePredicate field="double(CRIM)" operator="lessOrEqual" value="13.51894998550415"/>
									<Node score="12.7">
										<SimplePredicate field="double(DIS)" operator="lessOrEqual" value="1.83884996175766"/>
									</Node>
								</Node>
								<Node score="5.0">
									<SimplePredicate field="double(DIS)" operator="lessOrEqual" value="1.5163999795913696"/>
								</Node>
								<Node score="7.2">
									<SimplePredicate field="double(DIS)" operator="lessOrEqual" value="1.8504499793052673"/>
									<Node score="8.4">
										<SimplePredicate field="double(DIS)" operator="lessOrEqual" value="1.827650010585785"/>
										<Node score="8.5">
											<SimplePredicate field="double(AGE)" operator="lessOrEqual" value="86.6500015258789"/>
										</Node>
									</Node>
								</Node>
								<Node score="10.5">
									<SimplePredicate field="double(DIS)" operator="lessOrEqual" value="1.8901999592781067"/>
								</Node>
								<Node score="9.6">
									<SimplePredicate field="double(AGE)" operator="lessOrEqual" value="96.6500015258789"/>
								</Node>
							</Node>
							<Node score="67.0">
								<SimplePredicate field="double(AGE)" operator="lessOrEqual" value="50.5"/>
							</Node>
							<Node score="24.0">
								<SimplePredicate field="double(CRIM)" operator="lessOrEqual" value="0.8209849894046783"/>
							</Node>
						</Node>
						<Node score="17.8">
							<SimplePredicate field="double(RM)" operator="lessOrEqual" value="7.456500053405762"/>
							<Node score="33.2">
								<SimplePredicate field="double(INDUS)" operator="lessOrEqual" value="12.255000114440918"/>
								<Node score="32.9">
									<SimplePredicate field="double(RM)" operator="lessOrEqual" value="7.141000032424927"/>
									<Node score="29.0">
										<SimplePredicate field="double(PTRATIO)" operator="lessOrEqual" value="15.050000190734863"/>
										<Node score="30.7">
											<SimplePredicate field="double(ZN)" operator="lessOrEqual" value="45.0"/>
										</Node>
									</Node>
									<Node score="32.2">
										<SimplePredicate field="double(NOX)" operator="lessOrEqual" value="0.40150000154972076"/>
									</Node>
									<Node score="33.4">
										<SimplePredicate field="double(ZN)" operator="lessOrEqual" value="17.0"/>
									</Node>
									<Node score="33.1">
										<SimplePredicate field="double(ZN)" operator="lessOrEqual" value="64.5"/>
									</Node>
								</Node>
								<Node score="36.0">
									<SimplePredicate field="double(ZN)" operator="lessOrEqual" value="36.5"/>
									<Node score="36.1">
										<SimplePredicate field="double(CRIM)" operator="lessOrEqual" value="0.3662800118327141"/>
										<Node score="36.2">
											<SimplePredicate field="double(ZN)" operator="lessOrEqual" value="16.5"/>
										</Node>
									</Node>
								</Node>
								<Node score="35.4">
									<SimplePredicate field="double(NOX)" operator="lessOrEqual" value="0.4035000056028366"/>
								</Node>
								<Node score="33.3">
									<SimplePredicate field="double(AGE)" operator="lessOrEqual" value="41.54999923706055"/>
								</Node>
							</Node>
						</Node>
						<Node score="38.7">
							<SimplePredicate field="double(RAD)" operator="lessOrEqual" value="3.0"/>
							<Node score="42.3">
								<SimplePredicate field="double(INDUS)" operator="lessOrEqual" value="2.4600000381469727"/>
							</Node>
						</Node>
						<Node score="43.1">
							<SimplePredicate field="double(RM)" operator="lessOrEqual" value="7.582499980926514"/>
						</Node>
						<Node score="48.3">
							<SimplePredicate field="double(DIS)" operator="lessOrEqual" value="5.164950132369995"/>
							<Node score="48.5">
								<SimplePredicate field="double(PTRATIO)" operator="lessOrEqual" value="16.049999713897705"/>
								<Node score="50.0">
									<SimplePredicate field="double(ZN)" operator="lessOrEqual" value="57.5"/>
								</Node>
								<Node score="50.0">
									<SimplePredicate field="double(CRIM)" operator="lessOrEqual" value="0.02759500127285719"/>
								</Node>
							</Node>
							<Node score="46.7">
								<SimplePredicate field="double(NOX)" operator="lessOrEqual" value="0.5055000185966492"/>
							</Node>
						</Node>
						<Node score="46.0">
							<SimplePredicate field="double(DIS)" operator="lessOrEqual" value="7.059300184249878"/>
						</Node>
					</Node>
				</TreeModel>
			</Segment>
			<Segment id="3">
				<True/>
				<TreeModel functionName="regression" missingValueStrategy="nullPrediction" noTrueChildStrategy="returnLastPrediction">
					<MiningSchema>
						<MiningField name="double(RM)"/>
						<MiningField name="double(CRIM)"/>
						<MiningField name="double(AGE)"/>
						<MiningField name="double(NOX)"/>
						<MiningField name="double(PTRATIO)"/>
						<MiningField name="double(DIS)"/>
						<MiningField name="double(RAD)"/>
						<MiningField name="double(INDUS)"/>
						<MiningField name="double(ZN)"/>
					</MiningSchema>
					<Node score="21.9">
						<True/>
						<Node score="5.0">
							<SimplePredicate field="double(RM)" operator="lessOrEqual" value="7.011499881744385"/>
							<Node score="67.0">
								<SimplePredicate field="double(NOX)" operator="lessOrEqual" value="0.56700000166893"/>
								<Node score="22.0">
									<SimplePredicate field="double(NOX)" operator="lessOrEqual" value="0.5555000007152557"/>
									<Node score="19.8">
										<SimplePredicate field="double(RM)" operator="lessOrEqual" value="6.477999925613403"/>
										<Node score="16.1">
											<SimplePredicate field="double(RM)" operator="lessOrEqual" value="6.143500089645386"/>
											<Node score="20.6">
												<SimplePredicate field="double(CRIM)" operator="lessOrEqual" value="1.001880019903183"/>
												<Node score="18.7">
													<SimplePredicate field="double(DIS)" operator="lessOrEqual" value="4.555500030517578"/>
													<Node score="24.7">
														<SimplePredicate field="double(NOX)" operator="lessOrEqual" value="0.5149999856948853"/>
														<Node score="21.1">
															<SimplePredicate field="double(RM)" operator="lessOrEqual" value="5.963000059127808"/>
															<Node score="21.0">
																<SimplePredicate field="double(ZN)" operator="lessOrEqual" value="10.0"/>
																<Node score="21.7">
																	<SimplePredicate field="double(PTRATIO)" operator="lessOrEqual" value="18.90000057220459"/>
																	<Node score="22.5">
																		<SimplePredicate field="double(AGE)" operator="lessOrEqual" value="82.39999771118164"/>
																		<Node score="22.600000000000005">
																			<SimplePredicate field="double(AGE)" operator="lessOrEqual" value="70.69999694824219"/>
																			<Node score="22.6">
																				<SimplePredicate field="double(NOX)" operator="lessOrEqual" value="0.49949999153614044"/>
																			</Node>
																		</Node>
																	</Node>
																</Node>
															</Node>
														</Node>
														<Node score="23.2">
															<SimplePredicate field="double(PTRATIO)" operator="lessOrEqual" value="17.0"/>
														</Node>
														<Node score="24.0">
															<SimplePredicate field="double(DIS)" operator="lessOrEqual" value="3.749600052833557"/>
														</Node>
													</Node>
													<Node score="22.1">
														<SimplePredicate field="double(AGE)" operator="lessOrEqual" value="63.849998474121094"/>
														<Node score="20.2">
															<SimplePredicate field="double(RM)" operator="lessOrEqual" value="5.671999931335449"/>
														</Node>
														<Node score="23.3">
															<SimplePredicate field="double(PTRATIO)" operator="lessOrEqual" value="17.399999618530273"/>
														</Node>
													</Node>
													<Node score="19.6">
														<SimplePredicate field="double(NOX)" operator="lessOrEqual" value="0.5455000102519989"/>
														<Node score="19.8">
															<SimplePredicate field="double(AGE)" operator="lessOrEqual" value="86.29999923706055"/>
															<Node score="20.3">
																<SimplePredicate field="double(DIS)" operator="lessOrEqual" value="3.5671000480651855"/>
																<Node score="20.4">
																	<SimplePredicate field="double(NOX)" operator="lessOrEqual" value="0.5320000052452087"/>
																</Node>
															</Node>
														</Node>
														<Node score="19.3">
															<SimplePredicate field="double(AGE)" operator="lessOrEqual" value="88.29999923706055"/>
														</Node>
														<Node score="19.5">
															<SimplePredicate field="double(CRIM)" operator="lessOrEqual" value="0.5116200000047684"/>
														</Node>
													</Node>
													<Node score="18.3">
														<SimplePredicate field="double(RM)" operator="lessOrEqual" value="6.009999990463257"/>
													</Node>
												</Node>
												<Node score="18.5">
													<SimplePredicate field="double(RM)" operator="lessOrEqual" value="5.8445000648498535"/>
													<Node score="19.4">
														<SimplePredicate field="double(RM)" operator="lessOrEqual" value="5.632500171661377"/>
													</Node>
													<Node score="16.6">
														<SimplePredicate field="double(DIS)" operator="lessOrEqual" value="4.701550006866455"/>
													</Node>
													<Node score="17.1">
														<SimplePredicate field="double(PTRATIO)" operator="lessOrEqual" value="18.25"/>
													</Node>
													<Node score="18.2">
														<SimplePredicate field="double(CRIM)" operator="lessOrEqual" value="0.16346499510109425"/>
													</Node>
												</Node>
												<Node score="17.5">
													<SimplePredicate field="double(CRIM)" operator="lessOrEqual" value="0.032094999216496944"/>
												</Node>
												<Node score="18.7">
													<SimplePredicate field="double(RM)" operator="lessOrEqual" value="6.010499954223633"/>
													<Node score="20.4">
														<SimplePredicate field="double(RM)" operator="lessOrEqual" value="5.9654998779296875"/>
														<Node score="21.7">
															<SimplePredicate field="double(PTRATIO)" operator="lessOrEqual" value="16.59999942779541"/>
															<Node score="20.9">
																<SimplePredicate field="double(NOX)" operator="lessOrEqual" value="0.45799998939037323"/>
															</Node>
														</Node>
														<Node score="18.6">
															<SimplePredicate field="double(CRIM)" operator="lessOrEqual" value="0.08058499917387962"/>
														</Node>
														<Node score="19.7">
															<SimplePredicate field="double(NOX)" operator="lessOrEqual" value="0.4884999990463257"/>
														</Node>
													</Node>
													<Node score="18.9">
														<SimplePredicate field="double(PTRATIO)" operator="lessOrEqual" value="17.700000286102295"/>
														<Node score="18.9">
															<SimplePredicate field="double(CRIM)" operator="lessOrEqual" value="0.1437550000846386"/>
														</Node>
													</Node>
												</Node>
												<Node score="22.9">
													<SimplePredicate field="double(PTRATIO)" operator="lessOrEqual" value="17.149999618530273"/>
													<Node score="21.9">
														<SimplePredicate field="double(RAD)" operator="lessOrEqual" value="3.0"/>
													</Node>
												</Node>
												<Node score="21.2">
													<SimplePredicate field="double(PTRATIO)" operator="lessOrEqual" value="18.75"/>
												</Node>
												<Node score="20.4">
													<SimplePredicate field="double(DIS)" operator="lessOrEqual" value="4.766649961471558"/>
												</Node>
											</Node>
											<Node score="15.2">
												<SimplePredicate field="double(NOX)" operator="lessOrEqual" value="0.5410000085830688"/>
												<Node score="13.6">
													<SimplePredicate field="double(RM)" operator="lessOrEqual" value="6.046000003814697"/>
													<Node score="13.2">
														<SimplePredicate field="double(AGE)" operator="lessOrEqual" value="96.54999923706055"/>
														<Node score="13.1">
															<SimplePredicate field="double(CRIM)" operator="lessOrEqual" value="1.26985502243042"/>
														</Node>
													</Node>
												</Node>
											</Node>
										</Node>
										<Node score="23.4">
											<SimplePredicate field="double(PTRATIO)" operator="lessOrEqual" value="19.950000762939453"/>
											<Node score="21.7">
												<SimplePredicate field="double(INDUS)" operator="lessOrEqual" value="7.625"/>
												<Node score="24.7">
													<SimplePredicate field="double(INDUS)" operator="lessOrEqual" value="2.9149999618530273"/>
													<Node score="29.6">
														<SimplePredicate field="double(DIS)" operator="lessOrEqual" value="6.684750080108643"/>
														<Node score="28.7">
															<SimplePredicate field="double(NOX)" operator="lessOrEqual" value="0.47300000488758087"/>
														</Node>
													</Node>
													<Node score="22.0">
														<SimplePredicate field="double(DIS)" operator="lessOrEqual" value="8.247450113296509"/>
													</Node>
												</Node>
												<Node score="24.8">
													<SimplePredicate field="double(AGE)" operator="lessOrEqual" value="39.45000076293945"/>
													<Node score="23.0">
														<SimplePredicate field="double(AGE)" operator="lessOrEqual" value="31.75"/>
														<Node score="24.8">
															<SimplePredicate field="double(AGE)" operator="lessOrEqual" value="13.34999942779541"/>
														</Node>
														<Node score="23.3">
															<SimplePredicate field="double(INDUS)" operator="lessOrEqual" value="5.2250001430511475"/>
															<Node score="23.5">
																<SimplePredicate field="double(PTRATIO)" operator="lessOrEqual" value="17.90000057220459"/>
															</Node>
														</Node>
														<Node score="23.2">
															<SimplePredicate field="double(RM)" operator="lessOrEqual" value="6.260499954223633"/>
														</Node>
													</Node>
												</Node>
												<Node score="23.1">
													<SimplePredicate field="double(AGE)" operator="lessOrEqual" value="72.5"/>
													<Node score="22.2">
														<SimplePredicate field="double(PTRATIO)" operator="lessOrEqual" value="18.399999618530273"/>
														<Node score="22.6">
															<SimplePredicate field="double(ZN)" operator="lessOrEqual" value="15.0"/>
														</Node>
													</Node>
													<Node score="22.9">
														<SimplePredicate field="double(PTRATIO)" operator="lessOrEqual" value="19.300000190734863"/>
													</Node>
												</Node>
												<Node score="21.6">
													<SimplePredicate field="double(RAD)" operator="lessOrEqual" value="5.0"/>
												</Node>
											</Node>
											<Node score="27.1">
												<SimplePredicate field="double(INDUS)" operator="lessOrEqual" value="10.700000286102295"/>
												<Node score="28.1">
													<SimplePredicate field="double(NOX)" operator="lessOrEqual" value="0.5064999908208847"/>
												</Node>
											</Node>
											<Node score="24.1">
												<SimplePredicate field="double(CRIM)" operator="lessOrEqual" value="0.0870399996638298"/>
												<Node score="25.0">
													<SimplePredicate field="double(DIS)" operator="lessOrEqual" value="3.9587000608444214"/>
												</Node>
											</Node>
											<Node score="21.4">
												<SimplePredicate field="double(CRIM)" operator="lessOrEqual" value="0.1046849973499775"/>
											</Node>
											<Node score="23.0">
												<SimplePredicate field="double(PTRATIO)" operator="lessOrEqual" value="17.800000190734863"/>
											</Node>
										</Node>
										<Node score="21.7">
											<SimplePredicate field="double(RM)" operator="lessOrEqual" value="6.357500076293945"/>
											<Node score="20.7">
												<SimplePredicate field="double(INDUS)" operator="lessOrEqual" value="6.875000238418579"/>
											</Node>
										</Node>
										<Node score="18.6">
											<SimplePredicate field="double(RM)" operator="lessOrEqual" value="6.439500093460083"/>
										</Node>
									</Node>
									<Node score="34.9">
										<SimplePredicate field="double(AGE)" operator="lessOrEqual" value="41.35000038146973"/>
										<Node score="26.2">
											<SimplePredicate field="double(RM)" operator="lessOrEqual" value="6.790999889373779"/>
											<Node score="26.6">
												<SimplePredicate field="double(DIS)" operator="lessOrEqual" value="6.898500204086304"/>
												<Node score="32.4">
													<SimplePredicate field="double(INDUS)" operator="lessOrEqual" value="6.659999847412109"/>
													<Node score="29.4">
														<SimplePredicate field="double(RM)" operator="lessOrEqual" value="6.549000024795532"/>
														<Node score="29.1">
															<SimplePredicate field="double(RM)" operator="lessOrEqual" value="6.513999938964844"/>
														</Node>
													</Node>
													<Node score="30.5">
														<SimplePredicate field="double(NOX)" operator="lessOrEqual" value="0.44200000166893005"/>
														<Node score="30.8">
															<SimplePredicate field="double(RAD)" operator="lessOrEqual" value="4.0"/>
														</Node>
													</Node>
													<Node score="31.5">
														<SimplePredicate field="double(PTRATIO)" operator="lessOrEqual" value="17.5"/>
													</Node>
												</Node>
												<Node score="28.6">
													<SimplePredicate field="double(PTRATIO)" operator="lessOrEqual" value="16.949999809265137"/>
												</Node>
											</Node>
											<Node score="24.4">
												<SimplePredicate field="double(RM)" operator="lessOrEqual" value="6.641499996185303"/>
												<Node score="24.8">
													<SimplePredicate field="double(RAD)" operator="lessOrEqual" value="6.5"/>
												</Node>
											</Node>
										</Node>
										<Node score="31.6">
											<SimplePredicate field="double(INDUS)" operator="lessOrEqual" value="1.3950000405311584"/>
										</Node>
										<Node score="35.1">
											<SimplePredicate field="double(PTRATIO)" operator="lessOrEqual" value="15.949999809265137"/>
										</Node>
									</Node>
									<Node score="28.2">
										<SimplePredicate field="double(DIS)" operator="lessOrEqual" value="3.42139995098114"/>
										<Node score="26.7">
											<SimplePredicate field="double(DIS)" operator="lessOrEqual" value="3.0221999883651733"/>
										</Node>
										<Node score="30.1">
											<SimplePredicate field="double(RM)" operator="lessOrEqual" value="6.630000114440918"/>
										</Node>
										<Node score="28.7">
											<SimplePredicate field="double(ZN)" operator="lessOrEqual" value="16.5"/>
										</Node>
									</Node>
									<Node score="33.4">
										<SimplePredicate field="double(CRIM)" operator="lessOrEqual" value="0.055160000920295715"/>
										<Node score="27.1">
											<SimplePredicate field="double(DIS)" operator="lessOrEqual" value="6.011300086975098"/>
											<Node score="23.899999999999995">
												<SimplePredicate field="double(INDUS)" operator="lessOrEqual" value="8.850000023841858"/>
												<Node score="24.0">
													<SimplePredicate field="double(RAD)" operator="lessOrEqual" value="3.0"/>
												</Node>
											</Node>
										</Node>
									</Node>
									<Node score="23.3">
										<SimplePredicate field="double(CRIM)" operator="lessOrEqual" value="0.10290499776601791"/>
										<Node score="22.9">
											<SimplePredicate field="double(RAD)" operator="lessOrEqual" value="1.5"/>
										</Node>
										<Node score="23.600000000000005">
											<SimplePredicate field="double(INDUS)" operator="lessOrEqual" value="4.169999957084656"/>
										</Node>
									</Node>
								</Node>
								<Node score="24.0">
									<SimplePredicate field="double(CRIM)" operator="lessOrEqual" value="0.7159749865531921"/>
								</Node>
							</Node>
							<Node score="20.2">
								<SimplePredicate field="double(CRIM)" operator="lessOrEqual" value="6.808535099029541"/>
								<Node score="14.6">
									<SimplePredicate field="double(RM)" operator="lessOrEqual" value="4.994499921798706"/>
									<Node score="50.0">
										<SimplePredicate field="double(DIS)" operator="lessOrEqual" value="1.3966500163078308"/>
									</Node>
									<Node score="27.5">
										<SimplePredicate field="double(NOX)" operator="lessOrEqual" value="0.7944999933242798"/>
									</Node>
								</Node>
								<Node score="17.3">
									<SimplePredicate field="double(DIS)" operator="lessOrEqual" value="1.9864000082015991"/>
									<Node score="14.4">
										<SimplePredicate field="double(RM)" operator="lessOrEqual" value="5.428499937057495"/>
										<Node score="8.1">
											<SimplePredicate field="double(NOX)" operator="lessOrEqual" value="0.6165000200271606"/>
										</Node>
										<Node score="13.4">
											<SimplePredicate field="double(INDUS)" operator="lessOrEqual" value="20.734999656677246"/>
										</Node>
									</Node>
									<Node score="14.3">
										<SimplePredicate field="double(RM)" operator="lessOrEqual" value="5.7200000286102295"/>
										<Node score="15.6">
											<SimplePredicate field="double(PTRATIO)" operator="lessOrEqual" value="20.65000057220459"/>
											<Node score="15.2">
												<SimplePredicate field="double(AGE)" operator="lessOrEqual" value="96.3499984741211"/>
											</Node>
										</Node>
									</Node>
									<Node score="15.6">
										<SimplePredicate field="double(DIS)" operator="lessOrEqual" value="1.7474499940872192"/>
									</Node>
									<Node score="17.0">
										<SimplePredicate field="double(DIS)" operator="lessOrEqual" value="1.9245499968528748"/>
										<Node score="16.8">
											<SimplePredicate field="double(INDUS)" operator="lessOrEqual" value="18.84000015258789"/>
										</Node>
										<Node score="17.1">
											<SimplePredicate field="double(CRIM)" operator="lessOrEqual" value="0.8830899745225906"/>
										</Node>
									</Node>
									<Node score="17.4">
										<SimplePredicate field="double(AGE)" operator="lessOrEqual" value="95.25"/>
									</Node>
								</Node>
								<Node score="19.1">
									<SimplePredicate field="double(CRIM)" operator="lessOrEqual" value="4.545554876327515"/>
									<Node score="11.9">
										<SimplePredicate field="double(CRIM)" operator="lessOrEqual" value="0.05408499948680401"/>
									</Node>
									<Node score="23.0">
										<SimplePredicate field="double(RAD)" operator="lessOrEqual" value="5.5"/>
										<Node score="20.5">
											<SimplePredicate field="double(AGE)" operator="lessOrEqual" value="96.70000076293945"/>
											<Node score="25.0">
												<SimplePredicate field="double(INDUS)" operator="lessOrEqual" value="22.614999771118164"/>
												<Node score="22.0">
													<SimplePredicate field="double(CRIM)" operator="lessOrEqual" value="2.68676495552063"/>
													<Node score="23.9">
														<SimplePredicate field="double(DIS)" operator="lessOrEqual" value="2.215000033378601"/>
														<Node score="23.8">
															<SimplePredicate field="double(RM)" operator="lessOrEqual" value="6.6474997997283936"/>
														</Node>
													</Node>
													<Node score="22.7">
														<SimplePredicate field="double(RM)" operator="lessOrEqual" value="6.13949990272522"/>
														<Node score="23.8">
															<SimplePredicate field="double(CRIM)" operator="lessOrEqual" value="2.0213200449943542"/>
														</Node>
													</Node>
													<Node score="22.3">
														<SimplePredicate field="double(RM)" operator="lessOrEqual" value="6.69350004196167"/>
														<Node score="22.4">
															<SimplePredicate field="double(NOX)" operator="lessOrEqual" value="0.589000016450882"/>
														</Node>
													</Node>
												</Node>
											</Node>
											<Node score="21.4">
												<SimplePredicate field="double(AGE)" operator="lessOrEqual" value="90.6500015258789"/>
												<Node score="22.0">
													<SimplePredicate field="double(CRIM)" operator="lessOrEqual" value="0.1190049983561039"/>
												</Node>
											</Node>
										</Node>
										<Node score="19.1">
											<SimplePredicate field="double(AGE)" operator="lessOrEqual" value="97.79999923706055"/>
											<Node score="19.6">
												<SimplePredicate field="double(CRIM)" operator="lessOrEqual" value="1.7534199953079224"/>
											</Node>
										</Node>
										<Node score="19.2">
											<SimplePredicate field="double(DIS)" operator="lessOrEqual" value="2.222949981689453"/>
										</Node>
									</Node>
									<Node score="16.8">
										<SimplePredicate field="double(CRIM)" operator="lessOrEqual" value="0.2084515020251274"/>
									</Node>
									<Node score="22.6">
										<SimplePredicate field="double(DIS)" operator="lessOrEqual" value="2.5246999263763428"/>
										<Node score="19.9">
											<SimplePredicate field="double(DIS)" operator="lessOrEqual" value="2.4591000080108643"/>
											<Node score="20.8">
												<SimplePredicate field="double(CRIM)" operator="lessOrEqual" value="3.7575299739837646"/>
												<Node score="21.2">
													<SimplePredicate field="double(CRIM)" operator="lessOrEqual" value="1.9586700201034546"/>
												</Node>
											</Node>
										</Node>
									</Node>
									<Node score="19.9">
										<SimplePredicate field="double(RM)" operator="lessOrEqual" value="5.77649998664856"/>
										<Node score="19.7">
											<SimplePredicate field="double(PTRATIO)" operator="lessOrEqual" value="19.700000762939453"/>
										</Node>
									</Node>
									<Node score="18.3">
										<SimplePredicate field="double(RM)" operator="lessOrEqual" value="5.898499965667725"/>
									</Node>
								</Node>
								<Node score="14.9">
									<SimplePredicate field="double(DIS)" operator="lessOrEqual" value="2.6575000286102295"/>
									<Node score="13.3">
										<SimplePredicate field="double(RM)" operator="lessOrEqual" value="6.251500129699707"/>
										<Node score="12.7">
											<SimplePredicate field="double(RM)" operator="lessOrEqual" value="6.069000005722046"/>
										</Node>
									</Node>
									<Node score="16.7">
										<SimplePredicate field="double(AGE)" operator="lessOrEqual" value="95.0"/>
										<Node score="16.1">
											<SimplePredicate field="double(DIS)" operator="lessOrEqual" value="2.25285005569458"/>
										</Node>
									</Node>
									<Node score="15.2">
										<SimplePredicate field="double(NOX)" operator="lessOrEqual" value="0.726500004529953"/>
									</Node>
								</Node>
								<Node score="19.5">
									<SimplePredicate field="double(AGE)" operator="lessOrEqual" value="86.45000076293945"/>
								</Node>
							</Node>
							<Node score="23.1">
								<SimplePredicate field="double(RM)" operator="lessOrEqual" value="4.000499963760376"/>
							</Node>
							<Node score="8.7">
								<SimplePredicate field="double(CRIM)" operator="lessOrEqual" value="15.717999935150146"/>
								<Node score="19.1">
									<SimplePredicate field="double(NOX)" operator="lessOrEqual" value="0.5819999873638153"/>
								</Node>
								<Node score="20.8">
									<SimplePredicate field="double(CRIM)" operator="lessOrEqual" value="12.425250053405762"/>
									<Node score="13.1">
										<SimplePredicate field="double(CRIM)" operator="lessOrEqual" value="11.930249691009521"/>
										<Node score="11.0">
											<SimplePredicate field="double(AGE)" operator="lessOrEqual" value="81.5999984741211"/>
											<Node score="8.4">
												<SimplePredicate field="double(DIS)" operator="lessOrEqual" value="1.8648000359535217"/>
											</Node>
											<Node score="11.7">
												<SimplePredicate field="double(AGE)" operator="lessOrEqual" value="74.3499984741211"/>
											</Node>
										</Node>
										<Node score="9.5">
											<SimplePredicate field="double(AGE)" operator="lessOrEqual" value="96.14999771118164"/>
											<Node score="13.4">
												<SimplePredicate field="double(AGE)" operator="lessOrEqual" value="95.45000076293945"/>
												<Node score="14.9">
													<SimplePredicate field="double(NOX)" operator="lessOrEqual" value="0.7290000021457672"/>
													<Node score="13.4">
														<SimplePredicate field="double(AGE)" operator="lessOrEqual" value="85.5999984741211"/>
													</Node>
													<Node score="14.1">
														<SimplePredicate field="double(DIS)" operator="lessOrEqual" value="2.2921500205993652"/>
														<Node score="14.5">
															<SimplePredicate field="double(AGE)" operator="lessOrEqual" value="89.3499984741211"/>
														</Node>
														<Node score="13.8">
															<SimplePredicate field="double(DIS)" operator="lessOrEqual" value="1.832900047302246"/>
														</Node>
														<Node score="14.2">
															<SimplePredicate field="double(DIS)" operator="lessOrEqual" value="1.9814000725746155"/>
														</Node>
													</Node>
												</Node>
												<Node score="12.8">
													<SimplePredicate field="double(RM)" operator="lessOrEqual" value="6.128000020980835"/>
												</Node>
											</Node>
										</Node>
										<Node score="17.1">
											<SimplePredicate field="double(AGE)" operator="lessOrEqual" value="98.29999923706055"/>
											<Node score="14.6">
												<SimplePredicate field="double(AGE)" operator="lessOrEqual" value="97.0999984741211"/>
												<Node score="15.1">
													<SimplePredicate field="double(RM)" operator="lessOrEqual" value="5.948999881744385"/>
												</Node>
											</Node>
											<Node score="17.2">
												<SimplePredicate field="double(NOX)" operator="lessOrEqual" value="0.6685000061988831"/>
											</Node>
										</Node>
										<Node score="13.8">
											<SimplePredicate field="double(RM)" operator="lessOrEqual" value="6.328000068664551"/>
											<Node score="14.1">
												<SimplePredicate field="double(CRIM)" operator="lessOrEqual" value="10.218595027923584"/>
											</Node>
										</Node>
										<Node score="13.3">
											<SimplePredicate field="double(NOX)" operator="lessOrEqual" value="0.6820000112056732"/>
										</Node>
									</Node>
								</Node>
								<Node score="11.7">
									<SimplePredicate field="double(NOX)" operator="lessOrEqual" value="0.726500004529953"/>
									<Node score="12.0">
										<SimplePredicate field="double(DIS)" operator="lessOrEqual" value="2.161449909210205"/>
									</Node>
								</Node>
								<Node score="10.8">
									<SimplePredicate field="double(DIS)" operator="lessOrEqual" value="1.9048999547958374"/>
								</Node>
								<Node score="9.6">
									<SimplePredicate field="double(AGE)" operator="lessOrEqual" value="96.6500015258789"/>
								</Node>
							</Node>
							<Node score="13.8">
								<SimplePredicate field="double(RM)" operator="lessOrEqual" value="4.253000020980835"/>
							</Node>
							<Node score="10.5">
								<SimplePredicate field="double(AGE)" operator="lessOrEqual" value="98.0"/>
								<Node score="8.3">
									<SimplePredicate field="double(NOX)" operator="lessOrEqual" value="0.7199999988079071"/>
									<Node score="8.8">
										<SimplePredicate field="double(RM)" operator="lessOrEqual" value="4.858500003814697"/>
									</Node>
								</Node>
							</Node>
							<Node score="7.2">
								<SimplePredicate field="double(CRIM)" operator="lessOrEqual" value="43.002699851989746"/>
							</Node>
						</Node>
						<Node score="33.8">
							<SimplePredicate field="double(NOX)" operator="lessOrEqual" value="0.6800000071525574"/>
							<Node score="29.0">
								<SimplePredicate field="double(NOX)" operator="lessOrEqual" value="0.40950000286102295"/>
								<Node score="35.4">
									<SimplePredicate field="double(CRIM)" operator="lessOrEqual" value="0.047860000282526016"/>
									<Node score="33.3">
										<SimplePredicate field="double(RAD)" operator="lessOrEqual" value="4.0"/>
										<Node score="32.2">
											<SimplePredicate field="double(RAD)" operator="lessOrEqual" value="1.5"/>
										</Node>
										<Node score="32.9">
											<SimplePredicate field="double(AGE)" operator="lessOrEqual" value="23.999999046325684"/>
										</Node>
									</Node>
								</Node>
							</Node>
							<Node score="48.5">
								<SimplePredicate field="double(NOX)" operator="lessOrEqual" value="0.6389999985694885"/>
								<Node score="44.8">
									<SimplePredicate field="double(DIS)" operator="lessOrEqual" value="3.435149908065796"/>
									<Node score="46.7">
										<SimplePredicate field="double(RM)" operator="lessOrEqual" value="8.048499822616577"/>
										<Node score="50.0">
											<SimplePredicate field="double(DIS)" operator="lessOrEqual" value="3.2871499061584473"/>
										</Node>
									</Node>
								</Node>
								<Node score="36.1">
									<SimplePredicate field="double(ZN)" operator="lessOrEqual" value="88.75"/>
									<Node score="42.3">
										<SimplePredicate field="double(AGE)" operator="lessOrEqual" value="28.399999141693115"/>
										<Node score="42.8">
											<SimplePredicate field="double(AGE)" operator="lessOrEqual" value="12.049999713897705"/>
										</Node>
									</Node>
									<Node score="38.7">
										<SimplePredicate field="double(DIS)" operator="lessOrEqual" value="3.758599877357483"/>
									</Node>
								</Node>
							</Node>
							<Node score="43.1">
								<SimplePredicate field="double(CRIM)" operator="lessOrEqual" value="0.5371150076389313"/>
							</Node>
							<Node score="36.0">
								<SimplePredicate field="double(DIS)" operator="lessOrEqual" value="2.0210999250411987"/>
								<Node score="36.5">
									<SimplePredicate field="double(RM)" operator="lessOrEqual" value="7.269500017166138"/>
								</Node>
							</Node>
						</Node>
						<Node score="17.8">
							<SimplePredicate field="double(NOX)" operator="lessOrEqual" value="0.715499997138977"/>
						</Node>
					</Node>
				</TreeModel>
			</Segment>
			<Segment id="4">
				<True/>
				<TreeModel functionName="regression" missingValueStrategy="nullPrediction" noTrueChildStrategy="returnLastPrediction">
					<MiningSchema>
						<MiningField name="double(RM)"/>
						<MiningField name="double(CRIM)"/>
						<MiningField name="double(AGE)"/>
						<MiningField name="double(NOX)"/>
						<MiningField name="double(PTRATIO)"/>
						<MiningField name="double(DIS)"/>
						<MiningField name="double(RAD)"/>
						<MiningField name="double(INDUS)"/>
						<MiningField name="double(ZN)"/>
					</MiningSchema>
					<Node score="21.9">
						<True/>
						<Node score="21.4">
							<SimplePredicate field="double(RM)" operator="lessOrEqual" value="6.906999826431274"/>
							<Node score="24.0">
								<SimplePredicate field="double(CRIM)" operator="lessOrEqual" value="4.994194984436035"/>
								<Node score="50.0">
									<SimplePredicate field="double(RM)" operator="lessOrEqual" value="6.158999919891357"/>
									<Node score="14.5">
										<SimplePredicate field="double(CRIM)" operator="lessOrEqual" value="4.727045059204102"/>
										<Node score="25.0">
											<SimplePredicate field="double(PTRATIO)" operator="lessOrEqual" value="19.90000057220459"/>
											<Node score="19.6">
												<SimplePredicate field="double(RM)" operator="lessOrEqual" value="6.053499937057495"/>
												<Node score="16.8">
													<SimplePredicate field="double(DIS)" operator="lessOrEqual" value="5.864699840545654"/>
													<Node score="20.4">
														<SimplePredicate field="double(AGE)" operator="lessOrEqual" value="70.14999771118164"/>
														<Node score="24.7">
															<SimplePredicate field="double(DIS)" operator="lessOrEqual" value="4.428099870681763"/>
															<Node score="23.2">
																<SimplePredicate field="double(PTRATIO)" operator="lessOrEqual" value="19.15000057220459"/>
																<Node score="22.6">
																	<SimplePredicate field="double(RAD)" operator="lessOrEqual" value="4.5"/>
																	<Node score="22.0">
																		<SimplePredicate field="double(RM)" operator="lessOrEqual" value="5.880499839782715"/>
																	</Node>
																	<Node score="22.5">
																		<SimplePredicate field="double(INDUS)" operator="lessOrEqual" value="7.539999961853027"/>
																	</Node>
																</Node>
																<Node score="22.6">
																	<SimplePredicate field="double(RM)" operator="lessOrEqual" value="5.873500108718872"/>
																	<Node score="22.8">
																		<SimplePredicate field="double(PTRATIO)" operator="lessOrEqual" value="14.800000190734863"/>
																	</Node>
																</Node>
																<Node score="23.3">
																	<SimplePredicate field="double(PTRATIO)" operator="lessOrEqual" value="16.5"/>
																</Node>
															</Node>
														</Node>
														<Node score="21.1">
															<SimplePredicate field="double(PTRATIO)" operator="lessOrEqual" value="19.100000381469727"/>
															<Node score="21.7">
																<SimplePredicate field="double(PTRATIO)" operator="lessOrEqual" value="17.300000190734863"/>
															</Node>
														</Node>
													</Node>
													<Node score="17.3">
														<SimplePredicate field="double(DIS)" operator="lessOrEqual" value="1.9753499627113342"/>
														<Node score="15.6">
															<SimplePredicate field="double(PTRATIO)" operator="lessOrEqual" value="16.90000009536743"/>
															<Node score="15.3">
																<SimplePredicate field="double(CRIM)" operator="lessOrEqual" value="1.640815019607544"/>
															</Node>
														</Node>
													</Node>
													<Node score="23.8">
														<SimplePredicate field="double(PTRATIO)" operator="lessOrEqual" value="16.249999523162842"/>
														<Node score="22.7">
															<SimplePredicate field="double(RM)" operator="lessOrEqual" value="5.865499973297119"/>
														</Node>
													</Node>
													<Node score="22.5">
														<SimplePredicate field="double(NOX)" operator="lessOrEqual" value="0.4909999966621399"/>
														<Node score="19.3">
															<SimplePredicate field="double(RM)" operator="lessOrEqual" value="5.5934998989105225"/>
														</Node>
														<Node score="21.7">
															<SimplePredicate field="double(DIS)" operator="lessOrEqual" value="4.115999937057495"/>
														</Node>
													</Node>
													<Node score="19.7">
														<SimplePredicate field="double(RM)" operator="lessOrEqual" value="6.0249998569488525"/>
														<Node score="18.5">
															<SimplePredicate field="double(CRIM)" operator="lessOrEqual" value="0.28676000237464905"/>
															<Node score="19.4">
																<SimplePredicate field="double(RAD)" operator="lessOrEqual" value="4.5"/>
																<Node score="18.8">
																	<SimplePredicate field="double(CRIM)" operator="lessOrEqual" value="0.17185500264167786"/>
																</Node>
																<Node score="19.8">
																	<SimplePredicate field="double(CRIM)" operator="lessOrEqual" value="0.2534549981355667"/>
																</Node>
															</Node>
															<Node score="18.3">
																<SimplePredicate field="double(CRIM)" operator="lessOrEqual" value="0.2761499881744385"/>
																<Node score="18.3">
																	<SimplePredicate field="double(PTRATIO)" operator="lessOrEqual" value="18.5"/>
																</Node>
															</Node>
														</Node>
														<Node score="20.3">
															<SimplePredicate field="double(PTRATIO)" operator="lessOrEqual" value="18.800000190734863"/>
														</Node>
													</Node>
												</Node>
												<Node score="19.7">
													<SimplePredicate field="double(PTRATIO)" operator="lessOrEqual" value="16.84999942779541"/>
													<Node score="20.9">
														<SimplePredicate field="double(RAD)" operator="lessOrEqual" value="2.5"/>
													</Node>
													<Node score="18.9">
														<SimplePredicate field="double(PTRATIO)" operator="lessOrEqual" value="15.999999523162842"/>
														<Node score="18.9">
															<SimplePredicate field="double(AGE)" operator="lessOrEqual" value="84.4000015258789"/>
														</Node>
													</Node>
												</Node>
												<Node score="18.6">
													<SimplePredicate field="double(RM)" operator="lessOrEqual" value="5.912499904632568"/>
													<Node score="17.2">
														<SimplePredicate field="double(DIS)" operator="lessOrEqual" value="9.361950397491455"/>
														<Node score="17.4">
															<SimplePredicate field="double(RM)" operator="lessOrEqual" value="5.6499998569488525"/>
															<Node score="17.6">
																<SimplePredicate field="double(INDUS)" operator="lessOrEqual" value="5.965000152587891"/>
															</Node>
														</Node>
														<Node score="17.1">
															<SimplePredicate field="double(NOX)" operator="lessOrEqual" value="0.43995000422000885"/>
														</Node>
													</Node>
												</Node>
											</Node>
											<Node score="20.5">
												<SimplePredicate field="double(RAD)" operator="lessOrEqual" value="4.5"/>
												<Node score="23.9">
													<SimplePredicate field="double(PTRATIO)" operator="lessOrEqual" value="16.199999809265137"/>
												</Node>
												<Node score="22.1">
													<SimplePredicate field="double(AGE)" operator="lessOrEqual" value="57.89999961853027"/>
													<Node score="21.2">
														<SimplePredicate field="double(RM)" operator="lessOrEqual" value="6.0884997844696045"/>
													</Node>
													<Node score="21.9">
														<SimplePredicate field="double(PTRATIO)" operator="lessOrEqual" value="17.399999618530273"/>
													</Node>
												</Node>
											</Node>
											<Node score="24.0">
												<SimplePredicate field="double(CRIM)" operator="lessOrEqual" value="2.133419990539551"/>
												<Node score="23.3">
													<SimplePredicate field="double(CRIM)" operator="lessOrEqual" value="0.24244999885559082"/>
												</Node>
												<Node score="24.3">
													<SimplePredicate field="double(RAD)" operator="lessOrEqual" value="7.5"/>
													<Node score="24.3">
														<SimplePredicate field="double(AGE)" operator="lessOrEqual" value="67.45000076293945"/>
													</Node>
												</Node>
											</Node>
										</Node>
										<Node score="27.5">
											<SimplePredicate field="double(AGE)" operator="lessOrEqual" value="97.95000076293945"/>
											<Node score="19.5">
												<SimplePredicate field="double(CRIM)" operator="lessOrEqual" value="4.489074945449829"/>
												<Node score="23.1">
													<SimplePredicate field="double(AGE)" operator="lessOrEqual" value="71.74999809265137"/>
													<Node score="18.7">
														<SimplePredicate field="double(CRIM)" operator="lessOrEqual" value="0.9283200204372406"/>
														<Node score="20.4">
															<SimplePredicate field="double(DIS)" operator="lessOrEqual" value="4.759850025177002"/>
															<Node score="20.2">
																<SimplePredicate field="double(RM)" operator="lessOrEqual" value="5.702499866485596"/>
															</Node>
														</Node>
														<Node score="19.5">
															<SimplePredicate field="double(CRIM)" operator="lessOrEqual" value="0.03863999992609024"/>
														</Node>
														<Node score="18.2">
															<SimplePredicate field="double(CRIM)" operator="lessOrEqual" value="0.05226000025868416"/>
														</Node>
													</Node>
													<Node score="21.8">
														<SimplePredicate field="double(NOX)" operator="lessOrEqual" value="0.5349999964237213"/>
													</Node>
												</Node>
												<Node score="15.2">
													<SimplePredicate field="double(RAD)" operator="lessOrEqual" value="4.5"/>
													<Node score="19.6">
														<SimplePredicate field="double(CRIM)" operator="lessOrEqual" value="0.8666450083255768"/>
														<Node score="13.9">
															<SimplePredicate field="double(RM)" operator="lessOrEqual" value="5.706000089645386"/>
															<Node score="15.2">
																<SimplePredicate field="double(DIS)" operator="lessOrEqual" value="3.1377499103546143"/>
															</Node>
